   -0.556253   -0.0669443    0.0694243    -0.415625   -0.0730025     -0.13169      0.57287    -0.378309     -0.81911   -0.0928969    0.0143842    -0.388623     0.259707    -0.025621    -0.590753    -0.522436    -0.178122     0.199676    0.0312348    -0.337407   -0.0986694  -0.00511593   0.00510238   0.00493371    -0.332323    -0.179669     0.402651    -0.273866    -0.294121    0.0166586   -0.0813363    0.0515966    -0.272437    0.0871617    -0.833178    -0.350427     0.150695    -0.949951    0.0429316    -0.716082    -0.170278    -0.920271    -0.283312     0.163887    -0.341196     -0.21269     -0.71289    -0.379249    -0.100633     0.109428    -0.355465     0.603415   -0.0992692    -0.368008    -0.140665    0.0247211    -0.431293    -0.427694    -0.363078    -0.254783    -0.183956    -0.203054     0.342723   -0.0833421      0.11124     -0.25152    -0.504653    -0.448571     -0.34201    -0.333112    -0.597143     0.059336    -0.186361    -0.500616     0.148557   -0.0386911     0.246947    -0.136384    -0.244498    -0.135188     -0.14522    0.0413014    -0.596779     0.114717    -0.193802    -0.132293    0.0489328   -0.0820817     0.423122    -0.122296    -0.121593     -0.47225    -0.553264    -0.135552     0.372483   -0.0277864    -0.620092    -0.076253    -0.551141    0.0517552    -0.368834     0.112869    -0.110204    -0.257699    -0.425303    -0.331189   -0.0880897     -0.23417    -0.246347     0.141841    -0.296447 -3.64447e-05     0.192331    -0.381243     0.150217   0.00972412    -0.402228    -0.192557    -0.704796     0.161725    -0.411327    -0.227834  0.000312385    -0.104862     0.255111    -0.115224     0.272671    -0.156858    -0.438009     0.358698    -0.116764    -0.509481     0.068124    -0.267274     0.246186    -0.334175     0.328354     0.287115   -0.0760633   -0.0842596     0.264961   -0.0740875    -0.429929    -0.721316     0.413404    -0.514903     -0.37906    -0.369765     0.215868    0.0394979     -0.55387   -0.0249158     0.193833      0.40564    -0.504224    -0.175619    -0.489577   -0.0734915    -0.340591     0.110017    -0.248718     0.705382    -0.845556     -0.40873     0.497232    -0.487602     0.109879    -0.011432     0.492474    -0.187578    -0.115361    -0.327197    0.0206528    0.0955565    -0.197539    0.0241644    -0.875508    -0.104168     -0.40645     0.326237     0.120357    0.0860788    -0.307343    -0.352141   -0.0957342     0.340612  -0.00251333    -0.185069    -0.143808     0.309095   0.00403351    -0.136247     -0.43547    -0.253189     0.319339    -0.241409     -0.17263    -0.650596    -0.159384    -0.261835
   -0.267685    -0.201626    -0.507126     0.523216     0.087507    0.0962425    -0.263447     0.221179    0.0942668    -0.248265    0.0868329    -0.175962    -0.205884  -0.00713004     0.165368   0.00198696     0.751867    -0.214783   -0.0571758     0.259398    -0.699723     0.697133      0.11457   -0.0703656   -0.0388105     0.294011    -0.338006   -0.0122355    -0.183205    -0.275538   -0.0174277     0.136494     0.217801    -0.243914     0.243566     0.155792    -0.279309    -0.174098     -0.23272    -0.231464    -0.351425    -0.854616    0.0959522    -0.304845    -0.330438    -0.113259     0.462154    0.0235269    -0.166448    -0.158349    -0.153713    -0.175687    -0.177188   -0.0273749    -0.261569    -0.612401     -0.20692      0.24987    -0.873694     0.342463   -0.0269657    -0.627864    -0.349621    -0.280924    -0.484876     0.225199    -0.120353    -0.873553  -0.00694792      0.26196     0.267023   -0.0209078    0.0185211     0.403949    0.0536598    -0.256258    -0.236979     0.260791     0.243101    -0.352757     0.243854    -0.396918     0.126093   -0.0635002     0.442904    -0.426981    -0.339398   -0.0846769     0.101138    -0.163488    -0.149625   -0.0339515    -0.100175     0.377141    -0.196432    -0.193616    -0.319535    0.0789963    -0.215928    -0.228497    -0.325666    -0.171557     0.186213    -0.115979    -0.166734    -0.124025    -0.120346    0.0412667    -0.281198    -0.182394    -0.517488    -0.285448     0.342121     0.559765     -0.31983    -0.130177    -0.361357    -0.313381   -0.0531767    0.0980625    0.0399567    -0.165703   -0.0855286    -0.160065    -0.610969    -0.284643    -0.865157     0.367887    -0.170247    -0.263292    -0.599461     0.162013    -0.117973     0.535457    -0.251125    -0.121194      0.16728   -0.0792292    -0.222623    -0.215778     -0.57347    -0.263167    -0.135003    0.0159468    0.0352382     0.193826   -0.0929924  -0.00567155    -0.651444    -0.282018   0.00275417    -0.148573    -0.488407    -0.275395    -0.280073     -0.17824     0.283346    -0.271753     0.238618   -0.0695729     0.555284     0.249321     0.059959     0.378863    -0.270166    0.0233949    -0.081704    -0.155837     -0.46493    -0.515739    -0.278473   -0.0580793     -0.17567    -0.141722   -0.0257963    -0.706192    0.0923054     0.493643    -0.356915    -0.610204    -0.132702    -0.248061    0.0431895    -0.349058     -0.53911    -0.256429     0.350006    -0.170029    0.0965027    -0.237361    -0.295192     0.265285    0.0564754     0.179722    -0.611019    -0.108816    -0.166094    0.0493941    -0.216405  -0.00289924
  -0.0446909    -0.551753    -0.405677     0.195855   -0.0216702     0.401053    -0.206452     0.149513     0.381146    -0.158152     -0.45002    -0.510891    -0.160102   -0.0507561    -0.211251    -0.782625    -0.272007     0.226853     0.912116    -0.444546     0.449905    -0.142917     0.425273     -0.34093    -0.428354     0.255776     0.445476    0.0160201     0.301832    -0.352998   -0.0994451     0.319272    -0.417207    0.0247185    -0.694428     0.326492    -0.344392   -0.0294133    -0.214923    -0.291881    -0.384644    -0.549952    -0.629636  -0.00668309     0.251585    -0.383152    -0.559351    -0.289001    0.0263953     -0.29955    -0.536329    -0.474374     0.348345    0.0853733    -0.105987    0.0904097    -0.582244    -0.300106     0.506547    -0.494826    -0.187104    0.0703423     0.159515    0.0228937    -0.738543     0.611513    -0.624631     0.313917   -0.0949714    -0.192401    -0.299067     0.139369   -0.0159895    -0.396711      0.47171     0.411111     0.929187     -0.60693    -0.588341     0.602831    -0.330847   -0.0541323     0.349046    -0.194233    -0.575635    -0.114902    -0.423121    -0.228827    0.0468286    0.0234481    -0.675122    -0.317975     0.528933    -0.441836    -0.233757    -0.199678   -0.0810404     0.153171    -0.190694   -0.0717945   0.00243286    0.0899804     0.653844    -0.238408     0.144622     0.283629    -0.269658      0.21469    0.0872635    -0.187894    -0.113027    -0.044789    -0.397185     0.510554    -0.669959     0.558351    -0.199441    -0.344754     0.593394    -0.946032     -1.01314   -0.0143235   -0.0891289    -0.116504     0.295716    -0.336929    -0.791295    -0.113351    -0.150957    -0.460971    -0.400348      0.73004    0.0214837     0.226303    -0.307133     0.087185    -0.203806       0.5575     0.719649    0.0991608     0.516466    -0.254909   -0.0984464     0.586589     0.268764    0.0527954    -0.194286     0.302658     0.286543    0.0820119    0.0218199     0.152803    -0.535713    -0.213195     0.553459    -0.223972     0.662461  7.42938e-05    -0.354089    -0.413858     0.323107     0.200032    -0.657447    -0.253019     -0.19928     0.508868    -0.284342    0.0261461    -0.535648     0.117787    -0.182536   -0.0806985      -0.1516    -0.292319    -0.211505     0.184552    -0.201271    -0.502979     0.403509    -0.400479     0.448731   -0.0814482   -0.0742562    -0.165674    -0.188047    -0.342361    -0.548543    -0.106884   -0.0373473     -0.30485       -0.136     0.317996    -0.165309     0.249493  -0.00778546     0.422271    -0.310113    -0.655484     0.121989     0.335604
   -0.285209     0.408837    0.0255691    -0.344046   -0.0725202    -0.337126      -0.6604     0.712066    -0.851341    0.0634817    -0.294824    -0.180425    -0.429116     0.149619   -0.0186468     0.604559    -0.239121     0.204488    -0.694274    -0.534237    -0.126777   -0.0681348    -0.644348    -0.208247     0.495033     0.429082    -0.829833    -0.289565    -0.138398    0.0542287     0.164182    -0.647063     0.397931   -0.0951265   -0.0319977    -0.522898   -0.0719632   -0.0932919     -0.17417    -0.713705    -0.431602    -0.305731    -0.372673    -0.942294    -0.370672   -0.0253934     -0.67884    -0.338529   -0.0694611    -0.202398  -0.00943903    -0.283758    -0.170587    -0.405911  -0.00109262    0.0372019    -0.808927     -0.49766     0.047387    -0.209656    -0.152155    -0.117217    -0.211282   -0.0178366    -0.824979    -0.732362    -0.532048     0.123734     0.203195    -0.377768     0.256746    -0.038559    -0.204194    -0.771587    -0.502447    -0.147456    -0.426608   -0.0541241  -0.00584025   -0.0562078     0.214891     -1.05993    -0.113712   -0.0426905  -0.00418383  -0.00332506     0.577659   -0.0599641     0.541304     0.139625    -0.191699   -0.0846856    -0.536696     0.573564    -0.503576    -0.251439      0.30652     -0.21511    -0.359024     0.562545    -0.387509  -0.00664701    -0.445181    -0.254449    -0.677547    -0.653825   -0.0975794    -0.159794  -0.00321028    0.0871064      0.30151    -0.334684     -0.24615    -0.685814    -0.405611    0.0606301    -0.168011    -0.286593    -0.550481    -0.388405      0.64767   -0.0329492    -0.195508    -0.329165    0.0454175    -0.552576     0.282892     0.442458   0.00192861    -0.689386     0.554816     0.280067   -0.0840372      0.63234    -0.906608     0.516441     0.102415    -0.181732    -0.624316   -0.0245948    -0.443923    -0.906134    0.0260904     0.105365    -0.580075     0.329688   -0.0847466   -0.0191143    -0.155236    -0.165038    -0.188052   -0.0958838     0.333541    -0.588885    -0.264881     0.533375     -0.39388    -0.194968     0.296075     0.203839    -0.198307    -0.469021     0.178628    -0.255095    -0.319604    -0.627726     0.497824   -0.0782515    0.0344462    -0.143357   -0.0507428    -0.313244   -0.0570945     0.413134    -0.463591     0.252837     0.250333    -0.292392    -0.687084    0.0448576   -0.0155354   -0.0456515    -0.873837    -0.361569    -0.136604     -0.39612   -0.0433204    0.0338845      -0.4571    -0.158727    0.0168005     0.363824   -0.0128104    -0.678728    -0.295166  -0.00372641    -0.014929    -0.489806     0.159832     0.277582
   -0.111166     -0.23656    -0.761473    -0.205754    -0.105259    -0.196719     0.103022    0.0356317    -0.046203    -0.624365   -0.0140019   -0.0471399    0.0681034     -1.04365    0.0741433    -0.207349   0.00814533    -0.402463     -0.36627   -0.0907891    -0.349197   -0.0490884    -0.225174    -0.112804    -0.377005     0.497168   -0.0156829   -0.0641724     0.213472    -0.121039    -0.468976     0.212653     0.383147    -0.143431    -0.126784     0.117731    -0.920585    -0.469775    -0.523623     0.298056   -0.0500431     -0.19994    -0.462128    -0.552193    0.0109041     0.698412    0.0518738     0.465299    -0.671979    -0.844663    -0.776987    -0.112598     0.695083    -0.416335    -0.332962   -0.0616484    -0.158557     0.159908    -0.697566   -0.0040405      0.20389    0.0544166     0.116595    -0.364572    -0.430106      -0.2399     0.245516    -0.469314   -0.0903513     0.289888    -0.257746    -0.117193    -0.115203    -0.335384    -0.303812     0.165347    -0.396066    0.0187661    -0.244278    -0.881247    -0.797241    -0.272267    -0.283174   -0.0602021   -0.0944359   0.00209897    -0.642289   -0.0346941    -0.901564     0.519674     0.367477   -0.0930783     0.127302   -0.0721717    0.0715125  -0.00508183    -0.627489    -0.066846    0.0680695    -0.253361    -0.239777    -0.194973    -0.706517    -0.735722    -0.235845     0.439008    -0.193595    -0.200768    -0.316864   -0.0817195    -0.166446  -0.00359722    -0.235994    -0.385139    0.0326501     0.310024     0.529953     0.177266    0.0222138    -0.303054    -0.258227    0.0925592    0.0594246   -0.0939278    -0.943397     0.251015    -0.331222     0.229923   -0.0848853   -0.0580431    -0.972874    -0.552785    -0.585727    -0.129995     0.051366     0.717943    -0.104694   -0.0744716    -0.745223    -0.339608      0.23246    0.0233241    -0.877762    -0.795598     -0.10339      0.28981    0.0021134    -0.514869    -0.427965    -0.466586     0.154776    -0.124618     0.156167     0.607671     0.144765     0.104216    -0.254533    -0.216081     0.414082    -0.658601    -0.286377    -0.443313   -0.0552033     0.279413     0.318035     0.347232   -0.0399079   -0.0947124   -0.0803855    -0.474412    -0.153843      0.22343   -0.0651092     0.251508     0.265415    -0.202665    -0.156115    -0.104993    -0.491677   -0.0879586    -0.209257    -0.169318    0.0293223    0.0453478    -0.325063     0.157169     0.109428    -0.275202     0.563451     0.246823    -0.150337    -0.966559   -0.0795704    0.0984698    -0.133642    -0.654949    0.0311914     0.698333    -0.408322    -0.389087
    0.680928     0.105144    0.0412593    -0.351806   -0.0281502    0.0960876    0.0495985    -0.887627    -0.490691     0.612225     0.248994    -0.171987    -0.191142    -0.429815     0.526704     0.613319       0.3318    -0.205526     0.098558     0.436915    -0.102262     0.379948     -0.14099    -0.382689    -0.129462    -0.417915    -0.725121    0.0701626    0.0409688      0.16246   -0.0136828     0.164584    -0.155471   -0.0934279    -0.295115     0.087286    -0.101872     0.433073     0.177433    -0.846095     0.224572     0.761445     0.625515     0.361922    -0.595367    -0.239137     -0.43797     0.595791    -0.713883    -0.504074     0.243244    -0.471581    0.0265029     0.184918     0.489622   -0.0374957     0.918564    -0.170674    -0.569672    -0.146451     0.026324    -0.321182    -0.720069   -0.0971386     0.437473    -0.169334    -0.426336    -0.375666    -0.122474    -0.199389     0.389869     0.131701    -0.185855     0.701163    -0.415444    -0.029214     0.355937     0.564801   0.00991745    -0.685852    -0.148631     0.683008     0.359332     0.412801     0.401666   -0.0730222     0.598648     0.208686    -0.489225    -0.145627      0.33184     0.610419    -0.194409    -0.188422   -0.0413865   -0.0301682    -0.113814    -0.014328     0.967398     0.179751    -0.347482     0.132746     0.444828     0.334393   -0.0767378   -0.0641253     0.242449    0.0938649     0.468251     0.413256    -0.576476     0.122808    -0.489797   -0.0154079     0.207369     0.062763    -0.384143   -0.0686385     0.240117     0.449726     0.451314    -0.178153   -0.0568695   -0.0939138    -0.172785     0.179903     0.341536    -0.721253     0.254399     0.421506      0.22707    -0.107203     0.110369    -0.732442      0.32087    -0.706238    0.0138388    -0.102921    -0.268878    -0.101167      0.14948      1.04586       0.7854     0.133079    -0.880254    0.0324214     0.164706   -0.0178598   -0.0488617      0.19329     0.248954   -0.0685481    0.0226656    -0.184307    -0.471559   -0.0254044    -0.153337   -0.0729766    -0.898388    -0.401021    -0.305617    -0.665835     0.124959   -0.0364073    -0.170379    -0.269541     0.190267    -0.348342     -0.25706    -0.196264  -0.00229928    -0.109305    0.0591768    -0.565358    -0.464864      -0.4701     0.528422     0.537487     0.442785    -0.240597   -0.0225092     0.401523     0.715005     -0.40826     0.528116    -0.220586    0.0643376    -0.345191    -0.167039     0.222051    -0.129194      0.39687     0.112801    -0.145043     0.386751    -0.180952   -0.0311238     0.337984   -0.0291177      0.29726
  -0.0373583    -0.409813  -0.00711226     0.314643    -0.122124      -0.2295    -0.525042    -0.451639        0.076    -0.580355    -0.139398     0.579793    -0.129312     0.159348    -0.380152     -0.54442    -0.113329    -0.419695    -0.169054    -0.137317     -0.51741    0.0817796   -0.0155797   -0.0175111    -0.277064    -0.542782      0.21145    0.0553989     -0.16221    -0.166205   -0.0345976    -0.492408    -0.462463    -0.189136    -0.453795    0.0658915    -0.239957    -0.347461     0.164339   0.00516852     0.115065   -0.0200352     0.287598    0.0811109    -0.472743    -0.239195      0.45837    -0.172485    -0.104022     0.317093     0.395358    -0.326134      0.10889      -0.2188   -0.0641766    0.0835715     0.735753     0.268574    -0.569352     -0.16779    0.0319022    -0.162396     0.359209    -0.315572     0.408062    -0.332199     0.282085    -0.186432    -0.257885    -0.255118    -0.312551    -0.248996  -0.00519183     -0.16179    0.0536098     -0.50385    -0.194912    -0.207217    0.0168598   -0.0800058   -0.0282186    0.0277198    -0.630261    -0.136244    -0.144664   -0.0497395    -0.470631   -0.0925429    -0.574334    -0.295578   -0.0381503  -0.00267522    0.0383862    -0.222809    -0.740264    0.0659714    -0.361607     0.148122   -0.0856107    -0.241672     0.306678    -0.237419     0.126842    -0.256671    -0.136802     0.308157     -0.14263    -0.413809    -0.199224    -0.275622    0.0168896    -0.266193     0.363951    -0.399831    0.0724768    -0.601094     0.334465    -0.309811    -0.355956     0.483102    -0.397534     0.016688  -0.00294244    -0.324195     0.356567    -0.448362    -0.647506   -0.0332987    -0.402413    -0.715891    -0.329736     -1.01219    -0.366787    -0.494872    -0.307326    -0.380957      -0.1598    -0.151035     0.205947   -0.0017984    -0.526547    -0.112352    -0.327415    -0.880245     0.134956     -0.74442    -0.295539   0.00694171    0.0781558  -0.00437546    -0.475765     0.104569    -0.453299   -0.0495338    -0.621783     -0.26392    -0.584721    0.0506221    -0.531306     -0.20582    -0.353607     0.315596    -0.752388     0.394525    -0.559961    -0.019142    -0.165833   -0.0391817     0.424931    -0.066647    -0.122546    0.0826784  -0.00297027   -0.0408416     0.395658    -0.823468    -0.582711        0.189    -0.136167    -0.274016    -0.444402    -0.442473    -0.178224    0.0134024     -0.11892     0.135096     0.314413    -0.144117    -0.150738    -0.544683    -0.166042    -0.449238    0.0695956     0.150295     0.235733     -0.24971    -0.146584     0.284133    -0.186664    -0.517241
   -0.275317    0.0458117     0.430798    -0.303056    -0.247206    0.0457443    0.0134788   -0.0508956     0.360976   -0.0246268    0.0647293     0.264374     0.411279    -0.400095    -0.321725    -0.143037   -0.0120834  -0.00545588    -0.530447     0.601689    0.0290525    -0.228738    0.0127967    -0.398422     0.468017    -0.224767    -0.677019     0.261363     -0.20232     0.289346     -0.41666    -0.459571    0.0875338    -0.163824     0.841259    -0.384902     0.419135    -0.365383    -0.141589     0.723053    -0.048842   -0.0144093     0.168753    -0.344004     0.187184     0.415629     0.334678    -0.188591     0.122533     0.348615     0.291448      0.47858    -0.174841    0.0738034     0.119909    -0.291184    -0.255788    -0.530772     0.275997     0.833754    -0.399664    -0.221728      -0.4183     0.530714    -0.169037     0.447527     0.120884    -0.496157      0.32174    -0.113365    -0.659736    -0.286562     0.442114    0.0899243    0.0903888    0.0160292    -0.441843     0.536387      0.67057    -0.263721     0.246199    -0.359167    -0.122071    -0.398199    -0.522938    -0.254865    -0.117051    -0.199913    -0.196486   -0.0502322      0.33494     -0.34861    -0.705783    -0.276782     0.114901     0.142981     0.447734    -0.215384    -0.352722    -0.220326     0.542637    -0.189382    -0.643993     0.652273    -0.375303    -0.556679     0.288139     0.139241    -0.239818    -0.186637    -0.424437     0.203344    -0.206346     0.350112     0.143494    -0.089942    -0.618775     0.211416    0.0340455     0.148947     -0.15574    0.0813106    -0.211314     0.980656    -0.950621    0.0750704     0.330083    -0.208507   -0.0136997     -0.12653     0.531035    -0.240626    -0.108971    -0.391574     0.105074    0.0339428    -0.191767    -0.307804    -0.420819   0.00446657    -0.183359    -0.142742      0.24505    -0.271556    -0.295622     -0.24618     0.122835     -0.39634     0.109198    -0.489924     -0.68955    -0.221217    -0.538717     0.351258    -0.424417    0.0160709      0.85425    0.0315359     0.301296    0.0428185     0.192219    -0.211879    -0.526397    -0.163784     0.617191   0.00371516    -0.200676    0.0900332      0.15881     0.347665    0.0923836     0.406155    -0.263626     0.287049    -0.155442     0.525153    -0.825934    -0.431254     0.269949    -0.257479    -0.258356    0.0669208    -0.187309     0.546338   -0.0828228    -0.423494    -0.130208   0.00791336     0.368352    -0.636905   -0.0557213     -1.08269    -0.104845      -0.2514    -0.347559     0.194867    0.0778285    -0.103081    -0.438706    -0.276858
    -0.40386    -0.323682    -0.170821    -0.137282   -0.0060489    -0.228771    -0.674094    -0.575594    -0.189525     -1.16059     0.336255    -0.245096    -0.254315     0.282923    -0.287866    -0.535578    -0.453778    -0.072797     -1.02215    -0.433406    -0.088591    -0.418001    -0.453396    -0.176185    -0.553105    -0.137852    -0.575769    -0.192712    -0.215519    -0.470358     0.107535     0.334345    -0.899597   -0.0186046     0.408169     0.163098    -0.174713    -0.368906    0.0692175    -0.759751     0.149449      0.40238    -0.191403     0.137798     0.231007    -0.189047    0.0467545    -0.611542    -0.334912     -0.35047    -0.311013    -0.328499    -0.547734     0.160881    -0.131015    -0.394081    -0.398391     0.672643    -0.021099    -0.480128   -0.0715631   -0.0777138    -0.686298    -0.200757     0.230564     -0.56933     -0.21232     0.334114   -0.0423376    -0.292227    -0.593197     0.031491    -0.141085    -0.513001    0.0853727    -0.317469     -1.17836    -0.700947    -0.383195     -0.51892    -0.577804       0.2917    -0.158669     0.117106     0.409509   -0.0761327     -1.07752   -0.0487997   -0.0694369    -0.522782    -0.202289    -0.533991    -0.582225    -0.250685    0.0365464    -0.233316    -0.732903    -0.274853    -0.396071    -0.316916   -0.0591168    0.0817125    -0.440853   0.00121187    -0.689679      0.34762    0.0272694    -0.350108    -0.441691   -0.0958981     0.116809    -0.192478    -0.504569    -0.361034    -0.291932    -0.445947    -0.442389     0.139975      -0.2526    -0.435377    -0.558454   -0.0227238    0.0858519    -0.348576    -0.529866    -0.426467   -0.0605711    -0.313213    0.0275329    -0.808955    -0.354852    -0.851315     0.106538    -0.321426    -0.676235     0.264227     -0.43113    -0.672894    -0.187181    -0.240152    -0.792599    -0.557516    -0.317071   -0.0630953    -0.596891    -0.607654    -0.066547   -0.0189356     -1.19403   -0.0726679     0.325489   -0.0930416   -0.0480193    -0.106356      0.18519    -0.187991    -0.624683    0.0768985    -0.226277   -0.0297153    -0.132528     0.448469     0.399729    -0.448167    -0.306361     -0.50735    -0.186607    -0.273351    -0.988297     -0.38932    0.0233382    -0.453659   -0.0523814    -0.534234    -0.415683     -1.08453    -0.485744    -0.129741    -0.197615    -0.772635   -0.0491688    -0.120442    -0.169856    -0.708807    -0.208646     0.088076    -0.128163     0.145838   -0.0862974     0.197267   -0.0608028      0.17935    -0.216988     0.450895    -0.857146    -0.132382    0.0787882   -0.0433476   -0.0285536    -0.164825
   -0.259608     0.285897     0.237301    -0.208584    -0.150788    -0.113559     0.409013    -0.376947    -0.200929    -0.602052    0.0321124    -0.229086    -0.246806    -0.863345    -0.356629    -0.028124   -0.0358673    -0.523369    -0.159103     -0.47882    -0.311387     0.122953    -0.349296    -0.122389     -1.06841    -0.401341     0.295426    -0.456937    -0.403208    -0.470192    -0.310004   -0.0575791     0.474577   -0.0189006     0.186377    -0.544681     0.258607   -0.0174869     0.201916     0.527882     0.008036    -0.398264    0.0751421    -0.455819   0.00835973    -0.669862   -0.0796915    -0.782664    -0.389517     0.243276    -0.368637    -0.419549     -1.13066    0.0156203    -0.173193    -0.214005   -0.0114604     0.452988    -0.956325     -0.20479    -0.346041    -0.226862  -0.00929991    -0.901467     0.269266    -0.139772     0.449403     0.177716    -0.402744     0.487881     0.644765    -0.294586    -0.124978    -0.149096    -0.295393    -0.660925    -0.290452    0.0967831    -0.651046      0.16046      -0.4099    -0.292429    -0.294842    -0.520729     0.288409   -0.0476676    -0.380545   -0.0426988      0.21466    -0.732923     -0.67729     0.228798     0.496232     0.368341     0.212743    -0.106765    0.0727755    -0.306862   -0.0190046    -0.164282    -0.551562     -0.36247    -0.348663    -0.119191     0.424722    -0.645869  -0.00929238     0.459454    -0.279556    -0.165104    -0.279376    0.0358416    -0.289008    -0.817034        0.138      -1.0426     0.341517      0.15357    -0.588078     0.220826     0.284663    0.0808715    -0.198694    -0.931811    -0.485478     0.118815   -0.0302994    -0.031979    0.0569942     0.287244    0.0272025    -0.394608   -0.0440146    -0.093461    -0.600791    -0.725006    -0.116705   -0.0765129    -0.236818    -0.114421     0.062587    -0.258242     0.193905     0.177022    -0.133572     0.404518    -0.130113     0.194316    -0.314047    -0.295433     0.213284    -0.331276  -0.00945547    -0.838163    0.0491568   -0.0590456    -0.764538    -0.135406    -0.240671     -0.58029    -0.112321     -0.30021     0.138857    -0.862297    -0.344262    -0.706264   -0.0858354    -0.300087    0.0853776     0.200043   -0.0787492    -0.384549    -0.111745    -0.379588     0.175792    -0.911701     0.450269     0.446815     -1.01298   -0.0320196   -0.0669431    -0.121065    -0.191139      0.37557   -0.0669681    0.0544631    -0.047167    -0.325805    -0.534301     0.219149    -0.077584     -1.20245    -0.461142    -0.445989    -0.583299     0.208664    0.0682378    -0.814172    0.0284346   -0.0415809