  0.00434098   -0.0176095    0.0257487    0.0114665   -0.0175169   0.00957546  -0.00965722   0.00387041  0.000779503    0.0193371   0.00573869    0.0342558    0.0316568    0.0237044    0.0101257   -0.0199046    0.0172731  -0.00725849   -0.0336546   0.00134295   -0.0284526    0.0300027    0.0278431   -0.0237168   0.00720509    0.0173028   -0.0220739    0.0314185   -0.0045735  -0.00736592  -0.00620598   -0.0273421    0.0213785    0.0326577    0.0271554    0.0287826   -0.0237627   -0.0341472    0.0325095   -0.0125713  -0.00177109     0.034759 -0.000992963     0.010418    0.0137258    0.0169523    0.0256544  -0.00652437   -0.0271218    0.0181284   -0.0287238   0.00287056   -0.0237919   -0.0162386    -0.016973   -0.0334495    0.0323533    0.0221592    -0.014833   -0.0329288     0.022891    0.0196714   -0.0322115    0.0326088    0.0235429  -0.00445342    0.0335398     0.025823   -0.0090899   0.00217667   -0.0378523    -0.072692 -0.000784454  -0.00231016   -0.0143216  0.000643425  -0.00779605   0.00266999    0.0158746    0.0124729    0.0135393    0.0321154    0.0232715   -0.0256227   -0.0174053  -0.00567237     0.029468    0.0221326  -0.00858957   0.00273254    0.0181284    0.0252143   0.00571397    0.0120456   -0.0314981    0.0056506   -0.0736115   -0.0557541   -0.0694959   -0.0662301   -0.0661565    0.0281901   0.00353381   0.00454799    0.0084297   -0.0369654   -0.0250732  -0.00529252    0.0107541   -0.0111727  0.000752845    0.0288819   -0.0200257   -0.0278501    0.0304313   -0.0244734  -0.00248947   -0.0355524  -0.00697279   -0.0478898   -0.0268626  -0.00773219   -0.0575458     -0.12081    -0.151659    -0.180806    -0.134564   -0.0877059   -0.0816448    -0.112007    -0.111804    -0.148295    -0.128837    -0.180859   -0.0770276   -0.0539869   -0.0119236  -0.00521855   -0.0226123   0.00477482    0.0165976   -0.0067214 -0.000698464   -0.0363771   -0.0276983   -0.0114453   -0.0452445   -0.0346814   -0.0417231    -0.056041   -0.0580772   -0.0876288    -0.212322    -0.154757    -0.209384    -0.182403     -0.21293    -0.192533    -0.216794    -0.222339    -0.164964    -0.163239   -0.0551066  -0.00826425    0.0209363   0.00688677  -0.00981617   -0.0123486   -0.0293245    0.0173992    0.0346769  -0.00820634   -0.0151025   -0.0125301   -0.0406812   -0.0552334   -0.0793048   -0.0342377   -0.0778032   -0.0716263   -0.0753844    -0.125574    -0.145493    -0.167916    -0.175992    -0.136409     -0.18669    -0.185273    -0.107186   -0.0096667    0.0579649     0.102806    0.0780319    0.0682459    0.0479154    0.0333112   -0.0331053   0.00884354  -0.00410706   0.00660656    0.0171975   -0.0514332      -0.0305    -0.033258    -0.101344    -0.140701    -0.106982   -0.0474875     -0.14518    -0.098565   -0.0918794   -0.0304129    -0.114101   -0.0669502  -0.00249547    0.0774384     0.232821     0.283074     0.313032     0.287838       0.2406     0.157062    0.0624631   -0.0116184   -0.0148724   0.00112013   -0.0149578   -0.0081006   -0.0587929   -0.0509018    -0.105762    -0.109463   -0.0489683   -0.0227862    -0.180002   -0.0374722   -0.0585807   -0.0174642    0.0193978    0.0665429     0.169529     0.159862     0.224646     0.313646     0.374346     0.458673     0.385203     0.336852     0.324604     0.233124    0.0387044  -0.00453858   -0.0256451   -0.0308905   -0.0227548    -0.059252  -0.00944265   -0.0812198   -0.0908398   -0.0909109   -0.0464402   -0.0129434   -0.0819422    0.0250034   -0.0422699     0.108384    0.0611444     0.149207      0.20419     0.244482     0.318274     0.356123     0.405469     0.328478      0.25784     0.241093     0.272974     0.285555    0.0431828   -0.0262985     0.030603   -0.0222854     0.017554   -0.0581457   -0.0324118   -0.0542587    -0.105845   -0.0387645    -0.059157    0.0154641   -0.0363977    0.0212333    0.0624395    0.0401589  -0.00326745   -0.0630463    -0.118685   -0.0781929   -0.0725812   -0.0886524    -0.111422   -0.0537878   -0.0780015   -0.0319107     0.148056     0.182802    0.0445308    0.0107251    0.0292495    -0.012021   -0.0449467   -0.0515236   -0.0137681   -0.0281027   -0.0568857   -0.0900776   -0.0093961   -0.0169595    0.0266744     0.100034   0.00372127   -0.0990089    -0.216162     -0.20395    -0.338466    -0.433116    -0.548427    -0.474174    -0.412569    -0.318898    -0.237763     -0.23155   -0.0905512     0.052727     0.062018   0.00394084   0.00460363    0.0235016    0.0144533   -0.0214206     0.036642   -0.0167458   -0.0627097    -0.140855   -0.0204182    -0.016384    0.0801632     0.126911     0.049523    -0.115944    -0.209967    -0.284089     -0.42915    -0.553479    -0.574126    -0.621085    -0.552447    -0.462167    -0.436306    -0.378535    -0.245416   -0.0557545   -0.0316816    0.0210141   -0.0351237   0.00983513   0.00883693   -0.0327831   -0.0341083   -0.0799791   -0.0852211    -0.076368   -0.0875012     0.108925     0.159837     0.128376    0.0926971    0.0316631   0.00247879   -0.0915948    -0.105673    -0.276146    -0.310651    -0.386619    -0.371348    -0.350222    -0.371049    -0.321038    -0.210311   -0.0100357   0.00710925    -0.027827    0.0312322    0.0113431   0.00191514    0.0224359   -0.0230596   -0.0803792    -0.108083    -0.069818     -0.04528    0.0313831    0.0841747     0.136084    0.0425075    0.0486962   -0.0126675   -0.0752863   -0.0100051   -0.0396493    -0.106082    -0.227715    -0.306102     -0.27724    -0.314154    -0.287772    -0.181275   -0.0345591   -0.0329019  -0.00358608    -0.025131   -0.0279925   0.00260278  -0.00588536   -0.0203242   -0.0663694   -0.0847617   -0.0857047   -0.0927495   -0.0561485   -0.0536983    0.0149802    0.0751287   -0.0633942   -0.0756356   -0.0999172    0.0464119    0.0728002   -0.0150486   -0.0746412    -0.241197    -0.298927    -0.275316     -0.20548     -0.14414    -0.054556   -0.0197456   0.00281105   -0.0130092    0.0351032   -0.0128304   -0.0439071    0.0219905   -0.0986051   -0.0731559     -0.01293    -0.100974   -0.0320084    -0.154772   -0.0918204   -0.0699632    -0.135625    -0.230364   -0.0948281  -0.00130306    0.0349171      0.06928   0.00117978    -0.142485    -0.183278    -0.171897    -0.144815   -0.0744307   -0.0336218    0.0241187   0.00348626   -0.0317995   -0.0159236    0.0049476    0.0344163    0.0836948   0.00846515    0.0190495    0.0315807   -0.0659259    -0.104847    -0.147729   -0.0774472    -0.111242    -0.161011     -0.18468    -0.156321    0.0231336    0.0880319     0.149917    0.0679242   -0.0313213    -0.135905    -0.169048   -0.0370184   -0.0129216   -0.0142127  -0.00742615    0.0123291   0.00837517   -0.0190491    0.0221061   0.00538351    0.0549273    0.0905085    0.0852235    0.0634626     -0.03423   -0.0187592   -0.0546044   -0.0403811    -0.100407    -0.136932    -0.151149   -0.0825701    0.0904864    0.0873064     0.145325    0.0205062    0.0288663   -0.0571058   -0.0585032   -0.0313578  -0.00443135    0.0047647    0.0178806  -0.00623665   -0.0233918   -0.0338999    0.0139156    0.0223545    0.0213814    0.0848607     0.153376    0.0710863    0.0649085   -0.0625741    -0.110159   -0.0806292   -0.0812639    -0.122392   -0.0953935   -0.0406301    0.0346611      0.14549     0.158485     0.106361    0.0428328   0.00265411   -0.0305003   -0.0174631   -0.0062701   -0.0352547    0.0293419   -0.0199874   -0.0301613   -0.0066783   -0.0153424      0.02618    0.0257925    0.0542805   -0.0164156     0.135616    0.0488877    0.0651872   -0.0632434     0.014129    0.0598116   -0.0419799   -0.0390944  0.000702142    0.0280299    0.0922536     0.136766     0.072478   -0.0323053   -0.0268647    0.0126894    0.0543578    0.0011165  0.000161929   0.00310439    0.0285999    0.0342108   -0.0201391    0.0308641  -0.00248346    0.0400251   -0.0681384   -0.0625493    0.0266423    0.0221723     0.132398    0.0584487    0.0409158    0.0236526   -0.0327737  -0.00965926   -0.0387921    0.0691786    0.0413879    0.0555532    -0.021471  -0.00990337    0.0216054    0.0204681    0.0507185    0.0138709   -0.0429984   -0.0363227   -0.0199697    0.0279754   -0.0172051   -0.0122887   -0.0326593  -0.00979945   -0.0932936    -0.131343   -0.0841975   -0.0379867     0.140823    0.0931425     0.034119    0.0270386   -0.0554319    -0.030016   -0.0187576    0.0428957  0.000242211   -0.0295543   -0.0190299   -0.0230449    0.0404147    0.0467887   0.00930005   -0.0180433  -0.00855786  -0.00466659    0.0250395  -0.00548831   -0.0330167   -0.0348692    0.0354246   -0.0134429   -0.0647597    -0.146877   -0.0794324  -0.00439422   -0.0355156    -0.021794    0.0917718   -0.0562671   -0.0520524    -0.119569  -0.00818227   -0.0518725   -0.0264619   -0.0855889   -0.0214404     0.011043    0.0266421    0.0657899    0.0564076   0.00313551   0.00544178   0.00458115   0.00888336   -0.0309684    -0.022253    0.0309645   0.00796654   -0.0106059    0.0243001   -0.0731289   -0.0416381   -0.0535711   -0.0359569    0.0294336    0.0424333    0.0710928   -0.0067593   -0.0142092    0.0432841    0.0483604  -0.00272882   -0.0276017  -0.00697277    0.0237346    0.0285472   0.00631759   0.00325349  -0.00631913   -0.0125939   -0.0178828   -0.0262847   -0.0165067   -0.0338916   -0.0015591   -0.0054352   -0.0221568   0.00366775   -0.0361336   -0.0531994  -0.00604704   -0.0355808   -0.0055404   -0.0342987   -0.0213588   -0.0338176    0.0131375   -0.0176449   -0.0846699    -0.103441   -0.0658772  -0.00826876   -0.0339397   -0.0238952    0.0519964    0.0201122    0.0166676    0.0230133   -0.0181178   0.00292055    -0.025128   0.00842432   -0.0192207   0.00230133   -0.0231133  0.000420348    -0.023458   -0.0080552   -0.0882025   -0.0807083   -0.0951493   -0.0841779    -0.060794   -0.0763205   -0.0928055   -0.0431835   -0.0439599   -0.0134634   -0.0658249   -0.0359633   -0.0206657    0.0100649    0.0304065   -0.0210225  -0.00928811   -0.0313799   0.00834566  -0.00962647   -0.0159835   -0.0227682   -0.0223024   0.00911836  -0.00298131    0.0295687  -0.00372722    0.0313579   0.00600217    0.0187842    0.0178814   -0.0209616   0.00368327    -0.048236   -0.0386237   -0.0385559   -0.0326267   -0.0408758    0.0243493  -0.00316903   0.00528939   -0.0051615    0.0177354    0.0124559    -0.018475    0.0268045  -0.00404117   -0.0327828
   0.0302708    -0.035002   -0.0273374   0.00271756    0.0228541   0.00616066   -0.0231432    -0.021436     0.029683  -0.00178344    0.0216576    0.0233122    0.0140886  0.000104352    0.0319544    0.0267472     0.023858   0.00662933   0.00924895 -0.000405753    0.0110694   -0.0296193     0.030344    0.0351277    0.0245164    0.0227432   0.00438049    -0.020329  -0.00958838    -0.013254    -0.018202    0.0328429    0.0222221     0.019395   -0.0138846    0.0145558   -0.0246784     0.030013   -0.0314492  -0.00551035    0.0317321   0.00737876 -0.000515859    0.0280699    0.0203927  -0.00343392   -0.0290305  -0.00659028    0.0231784   -0.0252736    0.0238932  -0.00749408   -0.0141545   0.00688176    0.0202214    0.0281943   -0.0240404   0.00144044  -0.00900074    -0.023996    -0.011261  -0.00921244   -0.0351295  -0.00553298   0.00144718    0.0249677  -0.00793266   -0.0005665  -0.00123794   -0.0359528   -0.0183684   -0.0529337   -0.0318373   -0.0597044   -0.0418656   -0.0141883   -0.0278504   0.00216526    0.0269366   0.00871224  -0.00810961     0.016954   -0.0192017   0.00144331   -0.0316222    0.0215604   -0.0329213    0.0101194   0.00957123  -0.00865688    0.0363956   -0.0150263   -0.0206031    0.0324113    -0.015786   -0.0708817   -0.0616409   -0.0679086   -0.0835105   -0.0722309   -0.0658849   -0.0542606   -0.0804922   -0.0135821   -0.0571633   -0.0337113   0.00778689    0.0118835  -0.00200515   -0.0097006   -0.0299187   -0.0104959  7.58035e-05   -0.0267225   0.00435557     0.028137    0.0400131    0.0417776    0.0627735      0.10748    0.0812549    0.0429142    0.0207298    -0.168387    -0.144782    -0.184953    -0.218287     -0.17399    -0.153545    -0.161072   -0.0951186    -0.108014    -0.157611    -0.111234   -0.0527845   -0.0467687   -0.0143043  -0.00488082    0.0169738    0.0328008    0.0268341    0.0335128   -0.0260579    0.0370171    0.0620335     0.126891     0.132099     0.159447    0.0986808    0.0553132   -0.0145129   -0.0210717    -0.074025   -0.0293418    -0.166619    -0.152662    -0.157447   -0.0875327   -0.0966403    -0.115442    -0.150078    -0.120175    -0.184546    -0.141042   -0.0325483   -0.0286258   -0.0235742   0.00463293  0.000259277    0.0150627   0.00872963   -0.0044019    0.0981675     0.144869     0.160055     0.167039     0.204954     0.169516     0.168792     0.203991     0.225126     0.300428       0.2343     0.188082    0.0628785      0.09561  -0.00876618   -0.0696306     -0.10979    -0.126856    -0.200862    -0.198846   -0.0816858   -0.0128713  -0.00540036   -0.0351796    0.0111131    0.0144046    0.0243443    0.0203155    0.0768641     0.118316    0.0702635    0.0554545     0.168846     0.134786     0.104542     0.203507     0.379002     0.394725      0.34138     0.223513     0.147663   -0.0113791   -0.0919613    -0.242808    -0.102496    -0.173695    -0.234295    -0.215896    -0.190369   -0.0998762  -0.00457909   -0.0182947   -0.0130063    0.0298115   -0.0169612    0.0115047      0.10196     0.115034    0.0722109   0.00305528    0.0413515    0.0955089     0.134483     0.133286     0.154125     0.197259     0.211003    0.0224087    -0.027521    -0.100129    -0.072123     -0.20385   -0.0827916   -0.0737206    -0.180844    -0.127206    -0.151224   -0.0830715   -0.0137231    0.0123373   -0.0285821    0.0276394   -0.0126605    0.0500451    0.0915638    0.0749803     0.163482     0.190055    0.0850182   0.00585933    0.0429088    -0.103384   -0.0411891    0.0152685    0.0285387   -0.0698185    0.0422814   -0.0712007   -0.0410133    -0.183839   -0.0394536    0.0148761   -0.0130632    -0.133426    -0.161576   -0.0326955    0.0294684   -0.0105566    0.0160141   -0.0352253    0.0111803    0.0439627     0.187416     0.148562     0.167807    0.0107605   -0.0752947     -0.11676    -0.266427    -0.239647     -0.25356    -0.208025    -0.115984    -0.133917     0.004091  -0.00087458   -0.0228507    -0.109197     0.035719    0.0540807    0.0456919   -0.0848461   -0.0910357   -0.0229123    0.0182137   -0.0339382    0.0107819   -0.0349629   -0.0315179    0.0407217     0.114283     0.204075     0.132867   -0.0331782    -0.246433    -0.218599    -0.378234    -0.268102    -0.152754    -0.187388   0.00459897    0.0561721  0.000879558   -0.0885152    0.0104983   -0.0324051      0.11038    0.0885977    0.0353094   -0.0587024   -0.0716711   -0.0560087   -0.0127583   -0.0305961  -0.00845911    0.0075575     0.005725     0.101313     0.181721     0.170685     0.186877    0.0124615     -0.19051     -0.24224    -0.226497    -0.197539    -0.252162     0.032072     0.140247    0.0319937   -0.0843706   -0.0571022    -0.057316   -0.0538276   -0.0614967    0.0123471   -0.0135784   -0.0519322   -0.0727994  -0.00648845   -0.0184938    0.0340765   -0.0308712    0.0197802    0.0310387    0.0824641     0.207668     0.216674     0.182998    0.0201916   -0.0543823    -0.133782    -0.190214    -0.209691    -0.101961    0.0385958    0.0506278   -0.0704836    -0.188163   -0.0509639   -0.0506965    -0.118488   -0.0738253    0.0113201   -0.0235672   -0.0621114   -0.0677131   -0.0727331   -0.0266677    0.0208967   -0.0177962   0.00950767   -0.0209843    0.0159496      0.14445     0.195336     0.102827    0.0756693    -0.105685    -0.111629    -0.140266   -0.0584351   -0.0294267   -0.0129936   -0.0502545   -0.0221534   -0.0642351    -0.060853    0.0406423    0.0824895    0.0986709     0.146656     0.115037   -0.0654605    -0.113893   -0.0748435   -0.0347033   -0.0188449   -0.0095227    0.0232538   -0.0300297   -0.0092119    0.0631337    0.0712744     0.039121    0.0576473   -0.0970445    0.0023488    0.0365805    0.0514138     0.148754   0.00403243    0.0175023   -0.0437755    -0.102977   -0.0619839    0.0614076     0.103961     0.153022     0.289539     0.175365   -0.0336036    -0.117033   -0.0460413  -0.00646266   0.00124775    0.0155353    -0.026456    0.0444053    0.0243817    0.0422422   0.00978276   0.00493101   -0.0908232   -0.0809555   -0.0904972    0.0413383     0.202525     0.224171     0.106151   0.00615221    -0.182388    -0.179561   -0.0623364   -0.0258486     0.161524     0.278714     0.257484     0.176213    0.0180784    -0.149226    -0.102955   -0.0062436   -0.0274367   -0.0259561  -0.00264209   -0.0050685    0.0601647   0.00519266   -0.0514306    -0.107828    -0.104404    -0.119641   -0.0711157   -0.0245489    0.0112138   -0.0136337    -0.193209    -0.219243    -0.231969    -0.367975     -0.19857    -0.084468     0.133403     0.248823     0.199477     0.170082   -0.0806164      -0.1769   -0.0982435  -0.00604967  -0.00155943  0.000531286   -0.0318769    0.0425088    0.0742213   -0.0200161   -0.0377122    -0.117794   -0.0778322   -0.0847263    -0.106031   -0.0779454   -0.0742804    -0.244684    -0.379727    -0.435861    -0.342182     -0.30368    -0.160349    0.0288903     0.256244     0.299146     0.168318     0.111235   -0.0262427    -0.177528   -0.0778343   0.00997443    0.0147144   -0.0309388   -0.0314414    0.0367016    0.0712556    0.0446073    -0.104916    -0.140921   -0.0943343   -0.0949488   -0.0769915    -0.126753    -0.190671    -0.357749    -0.542555    -0.469495    -0.439126    -0.245594   -0.0484634    0.0770356     0.246813     0.328219     0.209181     0.101203   -0.0764021    -0.131822   -0.0567741   -0.0245882    -0.016369   0.00761452    0.0169059    0.0249992    0.0630704    0.0525495   -0.0613392   -0.0833486   -0.0412606   -0.0915839   0.00627181   -0.0130272    -0.215451    -0.322331    -0.511076    -0.336967    -0.391942    -0.184332   -0.0479069     0.223622     0.178854     0.396586     0.167718     0.120154   -0.0697975    -0.113753   -0.0588308   -0.0135929    0.0114916    0.0191928   -0.0205334    0.0103377    0.0986331    0.0435877   -0.0285154   -0.0961272   -0.0295698    -0.156327   -0.0567234   -0.0811144    -0.105019    -0.236771    -0.284902    -0.274395     -0.16383   -0.0463626    0.0834261     0.169178     0.236447     0.322381     0.170765   0.00690201     -0.01044   -0.0819967   -0.0240706    0.0326531    0.0133448   0.00717855   -0.0104445    0.0325301    0.0481041     0.119509   -0.0195602   -0.0314954   -0.0831784   -0.0741536   -0.0680711   -0.0521755    -0.181096    -0.127382    -0.175807    -0.102256   -0.0748269     0.035112    0.0998592     0.162498     0.172775       0.0968    0.0920638   -0.0072172  -0.00884467    0.0314296    0.0255163  -0.00124822   -0.0166175   -0.0278035    0.0172658   -0.0241515    0.0156516    0.0799462    0.0921044    0.0438654   -0.0492883    0.0249896   0.00395624    0.0501724   -0.0561382   -0.0379904   0.00287524   -0.0343538  -0.00913484     0.110758     0.038926     0.068624     0.120553    0.0281103   -0.0187627   -0.0690481  -0.00335526   -0.0129243    -0.042174  -0.00131346    0.0169311    0.0136722  -0.00560479    -0.017956    0.0239002    0.0875063    0.0937781     0.164613     0.131249    0.0663501     0.115776    0.0589298     0.168165    0.0924343     0.123229    0.0390912    0.0690392   -0.0285055    0.0283392     0.087565    -0.079369    0.0271077    0.0820064    0.0868388    0.0317665  -0.00597355   -0.0117197  0.000999939    0.0186391   0.00112693    0.0262503    0.0164652    0.0265977    0.0430939    0.0228621    0.0813964    0.0742519     0.127474     0.125221    0.0741551       0.1087     0.108492  -0.00484239   -0.0123222     -0.13531   -0.0428699    0.0370843    0.0854827    0.0741062     0.171161      0.14905    0.0989328    0.0112928  -0.00324759   -0.0279055    -0.028043    0.0142376    0.0302172    0.0161391    0.0297876    0.0183791    0.0175113    0.0060043     0.029643   -0.0125524    0.0391728    0.0188062   -0.0118932  -0.00288221   -0.0406301   -0.0309593   -0.0483752   -0.0627968    -0.033457   0.00446828    0.0557313    0.0725862    0.0881352    0.0735715     0.011005   0.00487985    0.0198634   -0.0262445   -0.0202518  -0.00630096    0.0080931   -0.0223429    0.0200691   -0.0334625   0.00481603   -0.0284155   -0.0206905    0.0153824  -0.00246371     0.014632   0.00944655  -0.00988323   -0.0388483   -0.0192893    0.0134675    0.0176706  -0.00924997   -0.0295942    0.0123653   -0.0281739    0.0111406   0.00783677    0.0327757   -0.0308625  -0.00957053   0.00261471   0.00856315    0.0192608
  -0.0236951   0.00725909   -0.0318976    0.0312119   -0.0333202   -0.0292925    0.0321951    0.0110277    0.0245418    0.0257003 -0.000157307    0.0227188    0.0106841   -0.0218713    0.0198628   0.00318069   -0.0188553  -0.00942615    0.0185196   -0.0337833   -0.0280542   -0.0265507  -0.00836432    0.0336226   -0.0247313    0.0304175   -0.0199217   -0.0264444   -0.0091288     0.025766   0.00793606  -0.00948808    -0.010273   0.00806734   -0.0294576   -0.0148633    0.0401291   -0.0171932  -0.00631746    0.0267031  -0.00870154   0.00410142    0.0266562   -0.0322239    0.0129013    0.0018995    0.0297654   -0.0238335   -0.0259468    0.0016266     0.027768    0.0313389    0.0340456    0.0188136   0.00309513   0.00441636    0.0238766  -0.00481473   -0.0316226   -0.0202982    0.0285411  -0.00353375   -0.0161055  -0.00486206    0.0451141    0.0053289   0.00474821    0.0260032    0.0398065    0.0214783     0.075827    0.0226317    0.0603759    0.0849774    0.0927147    0.0678854     0.056888   -0.0061308   0.00815281    0.0127565   -0.0248683  -0.00215252  -0.00912954   -0.0279971    0.0261435   0.00848182    0.0309985    0.0144951  -0.00736658    0.0128453    0.0295728   -0.0101562   -0.0202298    -0.021836    0.0338355    0.0143755    0.0578122    0.0675218    0.0651756    0.0755928     0.105377     0.139348      0.10128     0.121225    0.0722901    0.0289734    0.0287578   -0.0317242   -0.0351614  0.000155591    0.0140005     0.024637   -0.0116845   -0.0228451   -0.0344982    0.0152479   -0.0159816   0.00305301   -0.0234252  -0.00309397   -0.0389049   0.00368115    0.0151352  -0.00195117  0.000547895   -0.0525981    -0.146148    -0.205152    -0.226726    -0.148391    -0.110831   -0.0964296   -0.0881439   -0.0807209   -0.0920836   -0.0775011   -0.0210863    0.0226189   -0.0356688  -0.00534183   0.00148482    0.0347083    0.0312945   0.00708815   -0.0447018   -0.0233711   -0.0373598   -0.0743604   -0.0773842   -0.0641726   -0.0853425    -0.153218    -0.193649    -0.315047    -0.394021    -0.589721     -0.53589    -0.463735    -0.516274    -0.408488    -0.320184     -0.32143    -0.292116    -0.168806    -0.126773   -0.0459574    0.0158271    0.0181615  0.000521687    0.0106995  -0.00362903    0.0383646     0.010153    -0.115344    -0.115035    -0.146679    -0.204971    -0.147306    -0.103284    -0.071844   -0.0815874   -0.0592638    0.0594229       0.1011    0.0526855    -0.145959    -0.159773    -0.211389    -0.304346    -0.365965    -0.509402    -0.412689    -0.318331    -0.186649  -0.00696888    0.0207434    0.0170472   -0.0291669  -0.00106234   -0.0254152   -0.0634454   -0.0804633   -0.0732157    -0.186793    0.0356829    -0.104791   -0.0328929    0.0245507      0.16949      0.35892     0.361629     0.505693     0.425421     0.273025     0.181406   -0.0395001    -0.132178    -0.246197    -0.362081    -0.360119    -0.403511    -0.202013   -0.0643901  -0.00582846    0.0011349   -0.0292278   -0.0109509    0.0114143   -0.0430184   -0.0656024   -0.0213978   -0.0693446    0.0206005    0.0576784     0.106493      0.20822     0.245725     0.263097     0.310527     0.405951     0.393173     0.304523     0.202645    0.0670817      0.10392  -0.00279716    -0.176268    -0.273542    -0.271225    -0.180016   -0.0762409 -0.000179493    0.0144788    0.0371406   -0.0093254  0.000981798   -0.0499954    -0.046901   -0.0469749    0.0366746    0.0620213    0.0799669     0.110153    0.0148548     0.163379     0.147173     0.245555     0.175321     0.329229     0.201718     0.160366     0.273578     0.166059    0.0984343     0.038608     -0.14375    -0.261373    -0.153114   -0.0265764    0.0148897   -0.0163222   -0.0293899    0.0237721    0.0389907   -0.0188622    0.0648806    0.0646935    0.0181456    0.0246262    0.0509057     0.102309     0.110281    0.0292742     0.153411     0.018936     0.242645     0.184292     0.342545     0.388738     0.420237     0.369024     0.266113     0.169601    0.0912724   -0.0225351   -0.0853209   -0.0437127   -0.0295869    -0.014573    0.0336862    0.0723731    0.0621893    0.0341444    0.0591028     0.106983     0.162091   -0.0122531    0.0340703    -0.012316    0.0137029  0.000366741    -0.118164     0.222719     0.223813     0.277837     0.343011     0.433998     0.536333     0.519308     0.373805     0.215583    0.0963831    0.0207583   -0.0510399   -0.0577689   0.00932446    0.0334501  -0.00780097    0.0643091    0.0584806      0.16284     0.128087     0.081114    0.0927198    0.0498995    0.0686971    0.0360404   -0.0138529    -0.199518    -0.160916     0.172752     0.228156     0.190317     0.345101     0.459009     0.359472     0.256426    0.0934898      0.12965    0.0829477   -0.0207443   -0.0554328   -0.0414695   0.00823204    -0.025927   -0.0146098    0.0683702    0.0865797     0.107402    0.0782718   0.00823325    0.0121016    0.0504626     0.105036   -0.0843531     -0.13226    -0.286475   -0.0948718     0.156975     0.134205    0.0586422    0.0726422     0.147149     0.102455  -0.00739022   -0.0590132    0.0278969    0.0154566   -0.0104091   -0.0665003   -0.0618655   -0.0101114    0.0225843  -0.00718679  -0.00770497    0.0460722     0.114045    0.0740256 -0.000961773    -0.030043   -0.0548148  -0.00526841    -0.280934    -0.297138     -0.36013    -0.341896    -0.134614  -0.00622726    -0.105072  -0.00914404    0.0125811      -0.1239    -0.117934   -0.0666842   -0.0262293   -0.0138915   -0.0658892   -0.0826281   -0.0302239   0.00185132 -0.000227301    0.0216354   -0.0413742   -0.0611425    0.0257851   -0.0486921   -0.0305491   -0.0901496  -0.00733063    -0.106843    -0.174391    -0.155707    -0.371968    -0.298475    -0.337354    -0.173331   -0.0461235    0.0313771     0.108901    -0.174157    -0.145364    -0.105534   -0.0386533   -0.0439446    -0.104006   -0.0874274   -0.0574262    0.0199774    0.0272617    0.0249926   -0.0116212   -0.0110008    0.0552676   -0.0402022   -0.0266288   -0.0328673    0.0219029   -0.0593986    0.0407843 -0.000536937     -0.10166    -0.362283    -0.237379    -0.162348   -0.0232563    0.0496652   -0.0319799    -0.120359    -0.120493    -0.212923    -0.124201    -0.172433    -0.146098    -0.107269   -0.0363447    0.0117684   -0.0307247     0.018529    0.0364326    0.0021716    0.0138015  -0.00599451    -0.128862    0.0719081    0.0736394    0.0602022     0.150943   -0.0878578    -0.174793    -0.259357    -0.180694    -0.062696   -0.0111054   -0.0327284    -0.129793    -0.125649    -0.173938    -0.196511    -0.167782     -0.22475     -0.15274   -0.0906473   -0.0101002   -0.0270559   0.00211048    0.0306019  -0.00210101   -0.0694421   -0.0554223   -0.0730624    -0.152194   -0.0431973   -0.0426457    0.0268615    0.0845784   -0.0942632    -0.129187    -0.141693   -0.0166897    0.0139948   -0.0627693   -0.0135297   -0.0498726    -0.122529   -0.0798844    -0.220889     -0.21981    -0.205584    -0.127633   -0.0810487   -0.0444638   -0.0448992     0.031793   -0.0202333    0.0492594   -0.0645692     0.017359    -0.113909    -0.246189     -0.15333    -0.133175   -0.0257596   -0.0500057    -0.263938    -0.184581    -0.187235    -0.136945  -0.00950123    -0.118731    -0.131935    -0.166792    -0.199621     -0.23707    -0.214425    -0.189646    -0.200233    -0.117472   -0.0236668   -0.0205074    0.0283812   -0.0227311    0.0133369    0.0209047   -0.0204554   -0.0783801   -0.0826243    -0.215913    -0.181099     -0.20315    -0.144656    -0.200536     -0.17197    -0.139601    -0.176928   -0.0733343    -0.132741    -0.192732     -0.10328    -0.220602    -0.263654    -0.255989    -0.244419    -0.189927    -0.123427   -0.0951088   0.00813398   -0.0348112   -0.0226072    0.0153452   0.00754805   -0.0241147   -0.0190706   -0.0484805    -0.131136    -0.122171    -0.157603    -0.181442    -0.248343    -0.199467     -0.20273    -0.160912    -0.180763   -0.0502267    -0.221151    -0.275258    -0.254443    -0.307251    -0.278506    -0.288272    -0.194087    -0.188456    -0.106411   -0.0678708    0.0338173   -0.0118358   -0.0354426    0.0196984    0.0209155  0.000184162   -0.0586793   -0.0399972   -0.0436868   -0.0356499    -0.023764    -0.209717    -0.202526    -0.287627     -0.24703    -0.183548    -0.190396    -0.201303    -0.182573     -0.19853    -0.225914    -0.193679    -0.258954    -0.245419    -0.213893    -0.131321   -0.0931566   -0.0264215   -0.0244626   -0.0289576    0.0326842  -0.00845729   -0.0284428  -0.00779039   -0.0330226  -0.00709165    0.0286087    0.0504967     0.079175   -0.0562084   -0.0229602    -0.138851    -0.200831    -0.132175    -0.316964    -0.226269    -0.248327    -0.149422    -0.110976   -0.0433486    -0.212551     -0.18438    -0.174921   -0.0760881     0.036663    0.0494493   -0.0523932   0.00484887  -0.00976494   0.00237064    0.0146124  -0.00917613     0.034003    0.0743717     0.129281    0.0983593     0.215495    0.0889735    0.0818645    0.0534362     0.023735    0.0769991    -0.101522     -0.13196   -0.0981126   -0.0434892     0.148781    0.0326042    -0.143343   0.00738037   -0.0028083    0.0171318   0.00261664    0.0248375   0.00509672   -0.0210567   -0.0176477    0.0117719   -0.0253143  -0.00793795    0.0360601    0.0399506    0.0725888     0.114565     0.233449     0.202856     0.299175     0.335213       0.3297     0.361403     0.273045     0.243401     0.205341     0.311898     0.412868      0.25051      0.15747      0.20787     0.183109      0.14924    0.0529697   -0.0316222    0.0177736   -0.0173102   0.00572679   0.00325731   -0.0354509  -0.00338837    0.0159706   -0.0164331    0.0476696    0.0643743    0.0863419     0.183882     0.181941     0.166779     0.249314     0.347157     0.412721     0.388192     0.316885     0.216257      0.21622     0.209824     0.112654     0.108833    0.0826856   0.00890026    0.0189203  -0.00922765   -0.0189307   -0.0147714    0.0283844    0.0206729   -0.0174978    0.0151645    0.0235904   -0.0184256   0.00523124    0.0494847    0.0238304  -0.00905943    0.0169344    0.0224861 -5.44948e-05    0.0325048     0.029316    0.0715837  -0.00801079  -0.00376757    0.0172093    0.0460097    -0.014047    0.0135808   -0.0159853   -0.0062359   -0.0342709   0.00530712    0.0169048  -0.00771261   0.00166074
  -0.0297982   0.00351756   -0.0312094   0.00761857   -0.0125449   -0.0336548    0.0323175   -0.0145684   -0.0254452    0.0168189  -0.00100583   -0.0220601   -0.0266441    0.0294535  -0.00277213   -0.0211913    0.0277138   0.00320812   -0.0266862   -0.0109576  -0.00721404   -0.0234927  -0.00768461     0.023087    -0.016145     0.012744    0.0326815   -0.0227728  0.000787641   -0.0227449     0.024148    0.0337642  -0.00837836   0.00742406    0.0296692  -0.00405742   -0.0235872     0.013308   -0.0054082   -0.0214589    0.0383815    0.0064053   -0.0257461    0.0132722    0.0337489   0.00917316  -0.00831272   -0.0107948  -0.00912613    0.0323171   0.00348351  -0.00837283   -0.0101532   -0.0133101    0.0198016    0.0113986   0.00843321   0.00743934    0.0191264   0.00796603  -0.00826774    0.0240705     0.020919    0.0505687    0.0388987    0.0815046    0.0261086    0.0525822    0.0357017    0.0396121     0.083804     0.126561    0.0907927    0.0289188    0.0736731     0.092077    0.0638382      0.08446    0.0331048  -0.00989604   -0.0158424  -0.00226871   -0.0115383    0.0243871   -0.0351541   -0.0174826   -0.0261939   -0.0310223   -0.0147766   -0.0151612   -0.0255148   -0.0210608    -0.031016    0.0149375    0.0192527   -0.0478365   0.00142908    0.0663898    0.0895388    0.0142614     0.127282     0.105313    0.0971897      0.13717     0.100707     0.130301     0.137141    0.0873546    0.0445125  -0.00171603    0.0101671   0.00281879   -0.0244276   -0.0116644    0.0212324   -0.0118303    0.0317438    0.0114176  -0.00410224   -0.0216051   -0.0957863    -0.016071   -0.0552406   -0.0750936   -0.0555019     -0.06144   -0.0609807   -0.0279182   0.00234063    0.0886443     0.150838     0.156389     0.193645     0.197894     0.127153    0.0212515    0.0200872   -0.0634496   -0.0211822  -0.00213914    0.0267833    -0.015321    0.0354496     0.026885   0.00228264   -0.0298213   -0.0734961    -0.125103    -0.192371    -0.220363    -0.242581    -0.181241    -0.141491    -0.182661   -0.0850854    -0.130339   0.00308355    0.0493999    0.0744606     0.127072     0.228957     0.216169     0.132206    0.0217855   -0.0199226   -0.0463426     0.028805   -0.0278177   -0.0177162    -0.029283    0.0269046   0.00686013   -0.0520477    -0.129852    -0.135144    -0.185516    -0.297705    -0.283356    -0.287995    -0.248785    -0.280959    -0.194866    -0.164907    -0.325069    -0.206991    -0.116309   -0.0559225    0.0637868    0.0125275     0.104944    0.0733192   -0.0395498   -0.0851041   -0.0564389    0.0257202   -0.0190314   -0.0106532   -0.0129959   0.00796596   0.00518115   -0.0584046    -0.121348    -0.155194    -0.264238    -0.326293    -0.345501    -0.221588    -0.193066   -0.0921446    -0.154457    -0.150908    -0.145175    -0.182171    -0.302968    -0.175085    -0.127635     -0.11268   0.00197147   -0.0974563   -0.0919108    -0.152369    -0.113508   -0.0555917    0.0252035    0.0134348   -0.0131214   -0.0344239   -0.0610462    -0.100031   -0.0992893    -0.189616    -0.225776    -0.230131    -0.218244    -0.173647   -0.0976535   -0.0975518     -0.11174    -0.168729   -0.0713823    -0.145964    -0.211605    -0.197361    -0.220022    -0.131321    -0.105344    -0.165282     -0.15549    -0.133181    -0.140618   -0.0478042   -0.0109926   -0.0103928    0.0163388   0.00808308   -0.0677325   -0.0596722    -0.117356    -0.139175    -0.171192    -0.205508    -0.199414    -0.145977    -0.102632    -0.140754   -0.0391165    0.0585569    0.0464711   -0.0928492     -0.28618    -0.347767    -0.296905    -0.302222    -0.207845    -0.256675    -0.263001    -0.270646    -0.160319    -0.079878    0.0256089    -0.026831   0.00195815   -0.0231128   -0.0753674    -0.084478    -0.142601   -0.0834257    -0.125094    -0.162416    -0.114633    -0.021735    -0.174843   -0.0256575   -0.0842144     0.155615    0.0923884   -0.0820591    -0.261105    -0.284515    -0.174359    -0.327666     -0.25748    -0.214962    -0.271202    -0.206924    -0.145053   -0.0290283    0.0142087  -0.00298322   -0.0250386   -0.0338686   -0.0639573   -0.0673143   -0.0606889   -0.0453592    -0.059375   -0.0961576   -0.0131378   -0.0133731   -0.0933433   -0.0517443    0.0690501     0.284265     0.106825    -0.080276    -0.131043    -0.114435    -0.177865    -0.160261    -0.124993   -0.0753769     -0.12826    -0.162206    -0.135639   -0.0471501    -0.026702   -0.0313965  0.000565091    0.0122474   -0.0530481   -0.0488745   -0.0793683   -0.0692074      -0.0892   -0.0219399    0.0675392    -0.138675   -0.0561431    0.0551457     0.193325     0.319616     0.136763   -0.0457886    -0.129013    -0.140662   -0.0235906   -0.0379416     0.026672  -0.00537749    0.0553314   -0.0420282   -0.0442434   -0.0454142    0.0293585    0.0328675   0.00435225   -0.0288327    0.0116599   -0.0253538   -0.0743001    0.0098798   0.00476287     0.089327     0.109565   -0.0382558    0.0136045    0.0530081     0.275744     0.199319     0.224201     0.109418    -0.127176    -0.272572     -0.08254     0.106139     0.150358     0.170588     0.145305     0.100633   -0.0175643   -0.0099671   0.00209501    0.0162405 -0.000822659 -0.000486333   -0.0329771   -0.0984314    -0.101049    -0.098473   -0.0388815      0.08263    0.0339952  -0.00437435   -0.0410357     0.108243     0.187184     0.235688     0.178112    0.0626458    -0.166368    -0.288064    -0.153285    0.0388521     0.160759     0.162319    0.0623267    0.0435348    0.0246361   -0.0259945     -0.02474    0.0136896   -0.0126924   -0.0270869   -0.0230085   -0.0905545    -0.171422   -0.0164847   -0.0142517     0.133584     0.081687    0.0972381     0.136538    0.0742533     0.280701     0.237736     0.130458   -0.0622556    -0.377465    -0.419599    -0.146877    0.0346369  0.000882748     0.146188    0.0433231     -0.02351   -0.0438579   -0.0149422    0.0302358   0.00754586   0.00731093    0.0227207   -0.0284799   -0.0683721    -0.186512     -0.19416    -0.128568     0.132783     0.253681     0.328643     0.256986     0.134553     0.418869      0.27906    -0.056619    -0.177563    -0.483808     -0.35176   -0.0420935  -0.00156126    0.0360211    0.0134491    0.0207321   -0.0544342    -0.011279   -0.0219918    0.0220219    -0.032117    0.0183459   -0.0172922     -0.02827    -0.129332    -0.231573    -0.282713    -0.164792     0.036393       0.3405     0.312164     0.222318     0.169118     0.179542     0.144097   -0.0806631    -0.189206     -0.25443    -0.220429    0.0400116    0.0311571  -0.00127557   -0.0204176   -0.0511998   -0.0658813   -0.0217747   -0.0320073    0.0228012   -0.0252382  -0.00903386  -0.00363442   -0.0244801    -0.124835    -0.268729    -0.346095    -0.167052    0.0765318     0.278672     0.220358     0.270404     0.206146     0.179082    0.0525055    -0.163484      -0.1589    -0.137095   0.00695719     0.138207    0.0959092    0.0455802    -0.015031   -0.0473805    -0.107107   -0.0693237   0.00507037    0.0115603    0.0181036  -0.00228863   -0.0257217   -0.0170283    -0.128555    -0.262671     -0.30278    -0.232176     0.024274     0.206176     0.215777     0.285083     0.233463      0.23118     0.088546    -0.115012   -0.0187457    0.0412771     0.117578     0.169837    0.0542268   -0.0583779    -0.072606    -0.113129    -0.097056   0.00674493     0.019542    0.0316531    0.0304396   0.00571187   0.00731797   -0.0622334    -0.108265    -0.168772    -0.165609    -0.170829    -0.145396    0.0393954      0.18246     0.237909     0.266224     0.210212  -0.00726757  -0.00366841    0.0995973     0.171699     0.209554     0.140168     0.066004   -0.0774392   -0.0831654   -0.0838293   -0.0712415   -0.0298218   -0.0263513    0.0207447  0.000595725    0.0273709   -0.0222923  -0.00116426   -0.0512201   -0.0498818    -0.117055    -0.096981    -0.119206    0.0330076    0.0873494     0.103777     0.191203    0.0151009   0.00476236    0.0551234    0.0516073     0.135671     0.164128    0.0907696   -0.0640266   -0.0746598   -0.0954545    -0.125374    -0.018859   0.00838348    0.0183678    0.0086733    0.0211775   -0.0144786   0.00887544   -0.0358718    -0.041441   -0.0246206   -0.0293853    -0.096585   -0.0669468    -0.110256    -0.190358    -0.120303   -0.0806647    -0.167974    -0.105122    -0.078178   -0.0790454     0.100938    0.0588112    0.0481328    -0.060563    -0.107915     -0.10741   -0.0177503   0.00939681   -0.0315266     0.039512    0.0148674   0.00116853    0.0340983    0.0341838  -0.00196465  -0.00138583     0.063284    0.0365821   -0.0221404   -0.0302015     -0.17706    -0.207799    -0.268507    -0.308017    -0.329059    -0.235299    -0.196132   -0.0787075   -0.0294735    0.0123801    0.0143791    -0.013144  -0.00952371   -0.0330179   -0.0634932    0.0170145     0.021989    0.0313827    0.0235625   -0.0137273    0.0196472   -0.0273922   0.00298788   -0.0273508      0.01104    0.0185436   -0.0456723   -0.0192274   -0.0941536   -0.0618939    -0.152982    -0.204238    -0.217255    -0.226748     -0.22949    -0.163253    -0.127505   -0.0412147   -0.0175377   -0.0479898   -0.0436712    0.0149781   -0.0127921    0.0156231  -0.00384916  0.000616921   -0.0330378   -0.0075468   -0.0285453    -0.022689   -0.0222545  -0.00485601   -0.0418427   -0.0272629   -0.0597566   -0.0787221   -0.0893865    -0.123652    -0.180384    -0.168605    -0.164958    -0.245657    -0.161758    -0.146888    -0.121771   -0.0923358   -0.0237145   -0.0236773   -0.0453729  -0.00923601   -0.0161882   -0.0315937  -0.00398543     0.013712   -0.0355345    0.0314051    0.0344495   -0.0197102   -0.0260574   0.00981784   -0.0239725   -0.0109711   -0.0205527   -0.0409182  -0.00590177   -0.0338443   -0.0429954   -0.0452729   -0.0278025   -0.0770207   -0.0408271   -0.0282192   -0.0121409   -0.0219356    -0.048014    0.0238554  -0.00938446   -0.0137196   -0.0201501   -0.0329697     0.030554    0.0226305   -0.0144981    0.0211724   -0.0135982    0.0134202   -0.0154862   -0.0135821    0.0157371    0.0109866  -0.00757593    0.0284947    0.0320215   -0.0192354   -0.0114501   -0.0353466   -0.0258949   -0.0413387    0.0128883    0.0279045   -0.0252157   -0.0168383    0.0120523  -0.00123655   0.00203466    0.0172133   -0.0195254   -0.0175653   -0.0238149    0.0169753   -0.0164983
  -0.0329409   -0.0232601    0.0352576   -0.0261641    0.0153674    0.0064158    0.0170751   0.00539177   -0.0143872    0.0331082    0.0235543    0.0222193    0.0185146  -0.00666361   -0.0256948   -0.0256186   0.00082968  -0.00969514   -0.0144072   -0.0212455   -0.0321027    0.0146573   -0.0124173    0.0233594    0.0077786   -0.0253538  -0.00693534   -0.0287761    0.0236006    0.0127942  -0.00233465   -0.0244223    -0.031775    -0.021677    0.0186997  -0.00686913     0.022247    0.0106191     0.010737    0.0130523   0.00935307     0.028859   -0.0337001    0.0113584    0.0147096   0.00902094   0.00165128   -0.0295854    0.0173338    0.0279909   -0.0197294   0.00145168  -0.00177177    0.0107081    0.0204661   0.00565508    0.0225957     0.033071   -0.0217323    0.0314464   -0.0330693    0.0101121    0.0137698   -0.0201054   -0.0263501     0.025934   -0.0263114    0.0306056    0.0332495    0.0273867   -0.0276622    -0.011751    0.0100371    0.0170696 -0.000528158   -0.0087583    0.0124846    0.0213716   -0.0358824   0.00639795    0.0144452    -0.015721   0.00383695    0.0160515     0.021497    0.0270595     0.017561   -0.0322199    0.0283892   -0.0199292  -0.00536258  -0.00881142  -0.00457807    0.0015962   -0.0106992    0.0173249    0.0306215    0.0122547   -0.0226798   0.00218107   -0.0168621   -0.0125066   -0.0451009    -0.052469   -0.0468331   -0.0140579   0.00240816   -0.0168213   -0.0173806    -0.027071   -0.0125553     0.018247    0.0172261    0.0281974   -0.0174145   -0.0346673     0.027552   0.00452645    0.0231509    0.0103058    0.0184389   0.00786298   -0.0160576   0.00841404     0.018784   -0.0395561   0.00738284   -0.0148272   -0.0289947   -0.0278818  0.000996806   -0.0444099   -0.0172441   -0.0387495   -0.0262738   -0.0128064   -0.0132592   -0.0239511   0.00321928    0.0022383   0.00397641  -0.00018906   0.00251563    0.0228663   -0.0122247  -0.00134423    -0.028057   -0.0201629    0.0135944   -0.0251844   -0.0503463   -0.0299327   -0.0513434    0.0138214    0.0377864   0.00421389    -0.015323    0.0169819    0.0473924    0.0623523    0.0593594    0.0170874    0.0371191    -0.018866   0.00711694    -0.033226    0.0303621  -0.00411104    0.0287446  -0.00495379    0.0237956   0.00525121  -0.00703311   -0.0389575   -0.0200621 -0.000110752   -0.0715277    -0.082123   -0.0958099   -0.0824938    -0.109457    -0.065935   -0.0632612   -0.0785133   -0.0992555    -0.101685   -0.0243978    0.0141148    0.0180505  -0.00584826    0.0456442   0.00627856    0.0236711   -0.0185756    0.0216997   -0.0240105   -0.0125225  -0.00306894    -0.025863    -0.018633  -0.00710328  -0.00402711   -0.0107701   -0.0580002   -0.0292684   -0.0738808    -0.109555   -0.0981882   -0.0973458   -0.0940002    -0.103932   -0.0935741   -0.0868714   -0.0906453   -0.0618633   -0.0325785    -0.020973    0.0316729   -0.0173791    0.0271467   -0.0156195    0.0173186    0.0330379    0.0172621    0.0262435  -0.00417295    0.0315463   0.00080481   -0.0448273   -0.0582462   -0.0169154   -0.0427572    -0.109633   -0.0669678   -0.0653575   -0.0432813   -0.0785692   -0.0892278    -0.103522    -0.068588   -0.0612011   -0.0443654    -0.057421   -0.0174006   -0.0434134    0.0132428  -0.00261469     0.014012  -0.00991517  -0.00385458     0.012249   0.00717675   -0.0185915   0.00832457  -0.00084747   -0.0156663   -0.0043395  -0.00794424   -0.0156252   -0.0897378   -0.0452518   -0.0878702   -0.0778564   -0.0796338   -0.0502215   -0.0842065   -0.0557316   -0.0490998   -0.0967575   -0.0876258   -0.0265626   -0.0651858   -0.0412374   0.00841494   -0.0246829    0.0213784   -0.0271657  -0.00533195   -0.0303236   -0.0320019    0.0327746   -0.0230961   -0.0152875   -0.0433736   -0.0397719   -0.0648105   -0.0369592    -0.074259   -0.0299378   -0.0739449   -0.0412803   -0.0418267   -0.0559585   -0.0611051    -0.046929   -0.0704723   -0.0732515    -0.105601   -0.0744494   -0.0426736   -0.0474846   -0.0151028    0.0281532    0.0028449  0.000722139    0.0198286  -0.00198715   -0.0239756   -0.0148284  -0.00535271    -0.028331   -0.0238092   -0.0497501   -0.0123259   -0.0751397   -0.0127761   -0.0142813   -0.0383642   -0.0359434   -0.0716722   -0.0899717  -0.00662618  -0.00994587   -0.0189903   -0.0479948    -0.133636   -0.0613404   -0.0719903   -0.0558378   -0.0349356 -0.000896618  -0.00506384   -0.0399223   -0.0259669   -0.0113921   -0.0299051     0.033393    0.0336974    0.0233956    -0.038428    -0.019839   -0.0468024   -0.0102554   -0.0220808  -0.00485986   -0.0634124    -0.111272   -0.0660879     -0.03685   -0.0338963    0.0352415   -0.0511928   -0.0171821   -0.0499497    -0.098806   -0.0752757   -0.0492707  -0.00961577    0.0207504   -0.0407333  -0.00396779   -0.0231653 -0.000260729   -0.0270613    0.0135174   -0.0021121    0.0203004 -0.000101924   -0.0128728   -0.0400629    0.0055828   -0.0389037    0.0181341    -0.088325   -0.0916496    -0.122572   -0.0484368    0.0245982   0.00344612   0.00942678   -0.0279055   -0.0697773    -0.102345   -0.0432832   -0.0404247   -0.0286309   -0.0365563   -0.0305898 -0.000966005     0.020828   -0.0220514   -0.0145529    0.0100625   0.00267008  -0.00814502   -0.0399762  -0.00370403   -0.0380193    0.0137342   -0.0169298    0.0180771   -0.0277681   -0.0484099   -0.0837506   -0.0487272    0.0425232   0.00549097    0.0269327   -0.0252474    -0.138168   -0.0506071   -0.0463411    -0.020446   -0.0733121   -0.0516102    0.0195918    0.0186555    0.0195027   -0.0284291  -0.00547188    0.0330645   -0.0114342  0.000264168   -0.0299423   -0.0336517   -0.0440022    0.0327062    0.0180933  -0.00588589   -0.0533056   -0.0998419   -0.0352836    0.0373359    0.0319604     0.015433   -0.0126704   -0.0412673    -0.116505    -0.119248    -0.111219   -0.0774518   -0.0330254   -0.0634961   -0.0305214    0.0269585    0.0282185    0.0132722  -0.00328553   0.00575364     0.023581   -0.0233318   0.00108371   -0.0083951   -0.0381512  -0.00837022  -0.00322643   -0.0164687   -0.0659069   -0.0271812   -0.0102835    0.0248174    0.0310337  -0.00716817    0.0300564   -0.0563481    -0.112256    -0.066156    -0.109179   -0.0663325   -0.0846016   -0.0634483   0.00802047   -0.0141969  -0.00661354   -0.0133759    0.0138097    -0.004819   0.00640225  0.000536474  -0.00689536  -0.00317875   -0.0289251   -0.0419057   -0.0469137 -0.000610131    0.0209797   -0.0153035   -0.0488482   -0.0117289   -0.0216808   0.00221352   -0.0158758   -0.0993569   -0.0932156   -0.0843228    -0.110183   -0.0843489   -0.0239996   -0.0229559   -0.0223111   0.00631613   -0.0231593  -0.00188666   0.00969964  -0.00638515   -0.0116338    -0.029669   -0.0221482    0.0142446   -0.0152724   -0.0288217   -0.0330699   -0.0283129     0.016955   -0.0540022  -0.00127592   -0.0546767   -0.0538062 -0.000666904   -0.0584194   -0.0607255   -0.0866312   -0.0766397    -0.103179   -0.0217643   -0.0159898   -0.0359436    0.0028065    0.0184886    0.0124993  -0.00891574    0.0310007   -0.0333313    0.0168135    0.0181049     0.022872   -0.0335786  -0.00699249   0.00267691 -8.88396e-06   0.00209386   -0.0568164   -0.0949185   -0.0352395    -0.102217   -0.0387919   -0.0212312   -0.0198035   -0.0591428   -0.0434697    -0.113569   -0.0453526   -0.0550202   -0.0445203   -0.0299641   -0.0036692  -0.00163493    0.0242177   -0.0239925    0.0309246    0.0268159  -0.00252734     0.015824   -0.0052251   0.00635202     0.010377   -0.0405898   -0.0281994   -0.0336164   -0.0443221   -0.0848184   -0.0648951    -0.100297   -0.0182623    -0.092213   -0.0327061   -0.0335093   -0.0622321   -0.0762155   -0.0418583   -0.0537906   -0.0368673   -0.0266193 -0.000734614    0.0255561   -0.0177933   -0.0279731   -0.0296469    -0.029387   0.00556901   -0.0291743    0.0212518   0.00344276    0.0161981   -0.0302687 -0.000211324   -0.0151069   -0.0388867   -0.0851387   -0.0742739   -0.0356546   -0.0739772   -0.0747734   -0.0765433   -0.0720335   -0.0152887   -0.0114478  -0.00550014   0.00848157   0.00171091   -0.0319488    0.0126157   -0.0166228    0.0242841  0.000944614    -0.020434    0.0316492   0.00255642   0.00533753    0.0107937   -0.0376446  -0.00751724    0.0202195    0.0118562   -0.0150904    -0.016051   -0.0597223     -0.07316    -0.043794   -0.0469249  -0.00599648    -0.053766   -0.0772802  -0.00397809  -0.00482624    0.0255229    0.0125599  -0.00272268  -0.00923828  -0.00666741  0.000642554   -0.0347735    0.0107724    0.0119382  -0.00341001    0.0187166   0.00943481     0.022743   -0.0355917   0.00364157    -0.041469  -0.00012791   -0.0578586   -0.0251301   -0.0357261   -0.0287614     0.020641    0.0292227   -0.0123234    0.0181734    0.0136325    0.0011504    0.0433148 -0.000324861   -0.0171287   -0.0330974   -0.0307407    0.0158709    0.0208181    0.0216529    0.0309696    0.0157707   0.00023285  -0.00394034   0.00223879   -0.0247204   -0.0025564  -0.00318124   -0.0591278   -0.0233229   -0.0171848   -0.0668512   -0.0437728   -0.0304642   -0.0462858   -0.0149368    -0.044489   -0.0489234   -0.0374427    0.0114204   0.00298442    0.0221722    0.0274824   -0.0171341   -0.0102624   0.00886283   0.00123107   -0.0292148  -0.00767968    0.0187214    0.0180008    0.0252221    0.0199039    0.0125427   0.00160506   -0.0315979   -0.0209854   -0.0627598   -0.0781926   -0.0696313   -0.0896886   -0.0357962   -0.0819226   -0.0221951   -0.0766029   -0.0338116   -0.0262748    -0.051391  -0.00822828  -0.00929343   -0.0183691   -0.0240633   -0.0144416     0.025755   -0.0155641   0.00781063    0.0194943   -0.0138788   -0.0312722   -0.0070875    0.0170509    0.0132776   -0.0117496    0.0152309    0.0117049   -0.0223428    0.0112481   -0.0165413  -0.00971579   -0.0389464    0.0161921   0.00715434   -0.0207693   0.00358141   -0.0161079  -0.00956814    0.0119058   -0.0118038    0.0186771    0.0232631   0.00716365   0.00487008   0.00345619    0.0209595  -0.00588042   -0.0262843   -0.0121695    0.0263947   -0.0175844    0.0084035    0.0258477    0.0335134  -0.00484612   -0.0165892   -0.0166788   0.00298411   0.00918986   -0.0365113     0.010457    -0.029159    0.0163684    0.0300054    0.0184322   -0.0193105    0.0184511    0.0239993   -0.0353275    0.0181403   -0.0161569  -0.00471524  -0.00588716    0.0280201     0.017509 -0.000425114
  0.00529253  -0.00376504   0.00368378   -0.0263999  -0.00545926   -0.0267311   -0.0183045   -0.0232989   -0.0207496     0.021361    0.0198412    0.0112048  -0.00703078    -0.033994    0.0268584    0.0219066    0.0158582   -0.0176041  0.000707462  -0.00189956    0.0208076    -0.012324    0.0162479    0.0304279    0.0205608    0.0210352   0.00917468   0.00288292    0.0120042    0.0322662   -0.0241527    0.0350818    0.0208781   -0.0332319   0.00442731   -0.0359929    0.0319306   -0.0272871    0.0102597   -0.0118582    0.0321052    0.0340874    0.0126274   -0.0263516  -0.00857789    0.0185627  0.000131154   -0.0338318   -0.0307245   -0.0054666   -0.0128959    0.0180713   0.00760716   -0.0282016    -0.025452   -0.0265314   -0.0199464   -0.0328845    0.0265158  -0.00669656   -0.0277413    0.0216457     0.020397   -0.0170189    0.0285011   -0.0161361    0.0145738    0.0193579    0.0358056    -0.023885   -0.0436345   -0.0314894    0.0164344     0.012218   -0.0553267   -0.0234826   -0.0283824    0.0127517   -0.0219569   -0.0340955    0.0194264    0.0273668   -0.0124064  -0.00852841    0.0139276   0.00330504    0.0282761   -0.0270077   0.00700179  -0.00502987   0.00582731    0.0384194    0.0352868  -0.00999698    0.0544445    0.0718699    0.0766387   -0.0178164   0.00773452    0.0282411    0.0642295    0.0516352   0.00445082  -0.00751988   -0.0651603   -0.0444823   -0.0118814  -0.00575751    0.0165681   0.00309142   -0.0232847     0.033981    0.0185522   -0.0102386  -0.00541285   0.00292659    0.0270266    0.0148068  -0.00722141    0.0429246    0.0637954     0.051039     0.111156     0.124817     0.118736    0.0995231    0.0801914    0.0414967     0.016318    0.0669208    0.0616906   -0.0196024   -0.0464802   -0.0241047   -0.0173525   0.00610606     0.012799  -0.00971044    0.0148614   -0.0288388     -0.02556   -0.0346742   -0.0253811  -0.00271439   0.00856589   -0.0226639    0.0104258    0.0467662    0.0461858    0.0843813     0.143371     0.110032    0.0968436     0.105068    0.0641227    0.0330317    0.0658382    0.0170024   0.00965736  0.000373028   -0.0436444  -0.00648422   -0.0139511    -0.020566   -0.0403194   -0.0364456   -0.0298591  -0.00186475   -0.0329942   -0.0166626   -0.0289453   -0.0256847   -0.0446881   -0.0428859   -0.0335874   -0.0581379   0.00866719   -0.0318366    0.0780401     0.086033    0.0530061    0.0504208   -0.0281168   -0.0148773   -0.0217202    0.0128026   -0.0219157   -0.0184343   -0.0944962    -0.024836   -0.0520606   -0.0354119   -0.0278328   -0.0202355    0.0363647   0.00632799   0.00955461    0.0171826   -0.0213313   -0.0235363   -0.0733372   -0.0622522   -0.0423631   -0.0114033   -0.0215773   -0.0293822    0.0628815    0.0344208   -0.0251568   -0.0399166   -0.0539462   -0.0844308   -0.0441481  0.000498226   -0.0502678    0.0278773   -0.0835295   -0.0460197    -0.046094   -0.0634739   -0.0348666   -0.0119814    0.0021853    0.0143711   -0.0117826    0.0103662   -0.0180867   -0.0466093   -0.0339985   -0.0731944   -0.0727413   -0.0604646   -0.0612035    0.0140188   -0.0406226    0.0286235   -0.0664328    -0.069243   -0.0757073    -0.105373     -0.06637   -0.0451713     -0.02555   -0.0519923     -0.07779   -0.0505666  4.48291e-05   0.00194194    0.0290457   -0.0199393    0.0248459  -0.00721365     0.021771     0.035298   -0.0172752   0.00417285  -0.00367929   -0.0458023   -0.0991808    -0.155093   -0.0423771    -0.054572   -0.0178826   -0.0789277    -0.074972    -0.125926    -0.120729   -0.0973141    -0.060919    0.0405941    0.0215991     0.045464   -0.0249073   -0.0781686   -0.0461938  -0.00660844   0.00262502    0.0532602    0.0232755   -0.0125874   -0.0193918   0.00800879   -0.0350922   -0.0154549   -0.0120617   -0.0922051   -0.0773143    -0.118647   -0.0818333   -0.0968692    -0.118757    -0.100165   -0.0904523    -0.156418     -0.11881   -0.0179296   -0.0124973    0.0651143 -0.000416562   0.00757241   -0.0894061   -0.0685953     -0.10123   -0.0277976   -0.0136008    0.0112445   0.00884675   -0.0257307   0.00195897   0.00977838     0.024981   -0.0131763   -0.0182261   -0.0680389    -0.155064    -0.128921   -0.0886494    -0.164118    -0.193934    -0.164435    -0.216561    -0.143654    -0.127565   -0.0745241   -0.0455926  -0.00334202    0.0111661   -0.0322707     -0.11721    -0.100272    -0.107508   -0.0546229   -0.0136496    0.0195693    0.0405532  -0.00358959   -0.0220053   0.00402738    0.0062767 -0.000122497   -0.0723123    -0.133121    -0.164861     -0.18949    -0.241121    -0.250473    -0.203933    -0.149794    -0.191016     -0.19755    -0.148255    -0.132838   -0.0507886   -0.0707702   -0.0851919    -0.129419     -0.14433      -0.1103      -0.1456    -0.115029   -0.0507958    0.0276046  -0.00886746   -0.0155048   -0.0115087    0.0108921    0.0321168     0.016981   -0.0813958    -0.120709    -0.206394    -0.285471    -0.278094    -0.211463    -0.139642    -0.153462   -0.0639612    -0.139724    -0.109696   -0.0812904   -0.0852599   -0.0862181    -0.131018    -0.185766     -0.22339    -0.215475    -0.205727    -0.154891     -0.14354    0.0146348    0.0305596   -0.0189937   -0.0346116   0.00687234    0.0314108  -0.00762363   -0.0562378    -0.195731    -0.221211    -0.247362    -0.127729   -0.0688955  -0.00978251   -0.0358452   -0.0281451   -0.0270506   -0.0106554    -0.106531    -0.164501    -0.135572    -0.247209    -0.214499     -0.23726    -0.205798    -0.170921    -0.159914    -0.101542   0.00273462  -0.00314744    0.0369549   -0.0166887  -0.00612223   -0.0224303    0.0112354   0.00462077    -0.150724    -0.210691    -0.171368   -0.0579921    0.0518718     0.106064    0.0713898     0.100128   -0.0339107   -0.0335678    -0.212789    -0.119299    -0.207757    -0.228706    -0.315803    -0.224258    -0.181969   -0.0956601    -0.120736    -0.045562   0.00318396  -0.00250606   -0.0137613   -0.0194155     0.016289   -0.0372677   -0.0266376   -0.0298486   -0.0632982   -0.0594605    -0.103705    0.0280667    0.0842682      0.16656    0.0805545    0.0141385   -0.0516542    -0.136862    -0.208706    -0.181737    -0.238981     -0.23423    -0.264747    -0.223765    -0.123517    -0.108474   -0.0378678   0.00157478    0.0322092     0.019258    0.0384628   0.00713142    0.0310048   -0.0370206   -0.0532388   -0.0383332   -0.0224221   -0.0178686    0.0214711    0.0510205      0.17934     0.142066    0.0490601      0.02405   -0.0505613   -0.0958535    -0.211601    -0.187056     -0.25114    -0.187223    -0.136993    -0.144853   -0.0363516   -0.0568191    0.0262627    0.0826891    0.0621489    0.0572596   -0.0117662   -0.0268077    0.0158958   0.00652281    -0.033317   0.00258235   -0.0292996    0.0655161     0.051811     0.110072     0.153605     0.139171     0.148949    0.0195384   -0.0713717    -0.102589   -0.0969088    -0.113521    -0.127981   -0.0510184   -0.0440972    0.0410191    0.0394642     0.022053    0.0950756      0.12376    0.0643481    0.0614513    0.0307793    0.0266957  -0.00422874    -0.033997   -0.0374611   -0.0026313    0.0203809    0.0912126     0.105227     0.183391     0.131676     0.152156     0.112005    0.0609165    0.0479081   -0.0347785   -0.0904594    -0.049525   -0.0125199    0.0368676    0.0298394    0.0960921    0.0929023     0.106727    0.0386696     0.107553    0.0594292 -0.000794165    0.0249973   -0.0189422   -0.0145151    0.0231537   0.00513008  -0.00872969   -0.0017063    0.0580966     0.119167      0.14746     0.149843    0.0873685    0.0631857    0.0160154    0.0355203   0.00336222    0.0372819    0.0207004    0.0472628    0.0886332       0.1443    0.0992131    0.0788377    0.0935455    0.0969019     0.090989    0.0318234    0.0250519    0.0300064   -0.0156644    0.0267316   -0.0131228     0.017657    0.0531882   0.00342711    0.0751446    0.0885642     0.099882    0.0554274     0.037507   -0.0177086   -0.0809106   -0.0883216   -0.0165822   -0.0389066    0.0502243    0.0306088    0.0627015     0.108902    0.0365147    0.0590694    0.0833298     0.121629     0.082479    0.0402561   -0.0198306  -0.00622607    0.0333129    -0.011515    -0.023627   -0.0267397    0.0106407      0.03039   -0.0311147    0.0201747    0.0177841    0.0441418    -0.057675   -0.0808519   -0.0957456   -0.0651337   -0.0758797   -0.0526768   -0.0218033    0.0711402    0.0839571    0.0515611    0.0945814     0.100249     0.141052    0.0979243    0.0730235    0.0374474  -0.00219375   0.00160014   -0.0262704  -0.00157736    0.0190743  -0.00768939    0.0210991     0.010567   -0.0695933     -0.05263   -0.0489413   -0.0577506    -0.135483   -0.0968543    -0.135436    -0.121686      -0.1009    -0.115098     -0.11235    0.0252702    0.0728745    0.0244987    0.0875976     0.042977    0.0586809    0.0631772    0.0211545    0.0368301    0.0101332   -0.0132979   -0.0150623   -0.0110576  -0.00279876   0.00835478   -0.0139164  0.000867548    -0.024119   -0.0374803   -0.0541475    -0.112207    -0.091565    -0.119627    -0.119139   -0.0717164   -0.0281488   -0.0685791  -0.00924277   -0.0344726   0.00607852  -0.00483093    0.0178381 -0.000410882    0.0174408    0.0297439    0.0342063   -0.0188803    0.0376581   0.00754585   -0.0328167   -0.0206018    0.0344467   -0.0342966    -0.013547  -0.00995233   -0.0155108   0.00264166   -0.0196424   -0.0662648   -0.0224682   -0.0488672    -0.015692   -0.0582478   -0.0404743   -0.0660888    0.0010736  -0.00372814    0.0103689   -0.0256132   -0.0145794   -0.0395511   -0.0249353   -0.0189925    0.0164569  -0.00866916    0.0141855    0.0253253   -0.0205268     0.023175   0.00349085   0.00160163    0.0156289   0.00900859   -0.0224057    0.0353471   -0.0155608  -0.00220037  -0.00238968    0.0279556   -0.0388761   -0.0200846   0.00742646   0.00679956    0.0168024   -0.0219349  0.000793084    -0.015386   0.00464134    0.0231413    0.0168137   -0.0233687  -0.00711228   -0.0140471    0.0249449     0.026101   -0.0333568   -0.0272931    0.0306496    0.0233404    0.0277539   -0.0192077   -0.0315924   0.00862774    -0.017104  -0.00821143     0.011124   -0.0199309   -0.0211746    0.0324453    -0.024019   0.00647892 -0.000124438    0.0211301   0.00656194   0.00285788    0.0300039    0.0170053   -0.0353355    -0.033966   -0.0169792    0.0059732   -0.0116712  -0.00203465
   0.0228963   0.00673403   -0.0152429    0.0115694    0.0318966    0.0156158 -0.000485649    -0.013091   -0.0235628    0.0138037   -0.0296532    0.0325341  0.000297339   -0.0269706   -0.0210611   -0.0329636    0.0293438   -0.0146172    0.0331774   0.00272801 -0.000818776    0.0132941   0.00624344   -0.0274156   -0.0056187   -0.0335744   -0.0155207    0.0246246   -0.0303195     0.012594  -0.00514335   -0.0224267   0.00638401    0.0318673    0.0266523    0.0183259    0.0150998  -0.00696611   -0.0225676   -0.0246493  -0.00468087   -0.0293796   0.00870705   -0.0472916   -0.0229049   -0.0183318     0.019538   -0.0193235    0.0244405    0.0204081  -0.00422044    0.0129682   -0.0036882    0.0155802    0.0140406    0.0146062   -0.0256121    0.0241763    0.0111549   0.00328478     0.034537   0.00531019   -0.0428645   -0.0601662   -0.0875988   -0.0584237   -0.0930246   -0.0996853    -0.117019    -0.139794    -0.133311    -0.162752    -0.163839    -0.134501    -0.134637   -0.0496032   -0.0680332   -0.0485304    -0.028688   -0.0197371    0.0293234   -0.0235298   -0.0143737    0.0201519   0.00962115   -0.0236087    0.0104327  -0.00683288   -0.0298155    0.0248085   -0.0162121   -0.0656627   -0.0835443    -0.130316     -0.14402    -0.175643    -0.167706    -0.212397    -0.237517    -0.225531    -0.223313    -0.179768    -0.149693    -0.100528   -0.0446383   -0.0661315   -0.0681167  -0.00673723   -0.0061157  -0.00632901   -0.0266196   -0.0236087    0.0208539    0.0192049  -0.00518071   -0.0174155   -0.0113015   -0.0442364   -0.0680666    -0.116514      -0.2412    -0.280705    -0.206098    -0.267636      -0.2549    -0.248765    -0.239481    -0.219268    -0.278069    -0.143884    0.0318638  -0.00956027   -0.0233393    0.0246494    0.0255821    0.0100857  -0.00353206    0.0131198    0.0266677  -0.00207055   -0.0163296    0.0162303    0.0329351  -0.00164269    0.0137041   -0.0383691   -0.0396958    -0.159059    -0.154456    -0.165782  0.000810135    0.0424145     0.174467    0.0140784    0.0665515   -0.0935308   0.00756118   -0.0843761   0.00941914   -0.0813314   -0.0887544    -0.177424   0.00651521     0.023822   -0.0809396    -0.015093  -0.00584139   0.00121997   -0.0337381   -0.0253971    0.0118116   0.00684828   -0.0182369   -0.0574249   -0.0843686    -0.127836    -0.153623   -0.0495912   0.00768487     0.128805    0.0697426    0.0580935   0.00573286   0.00769853   -0.0524784    0.0234659    0.0389095    -0.100856    -0.158636    -0.238963    -0.116982    0.0217355    -0.142604    -0.126343   -0.0733073   -0.0218564    -0.026155   -0.0160236    0.0172713  -0.00243739  -0.00173545   -0.0414127  -0.00459642   -0.0474726   -0.0611576    0.0554472    0.0978599     0.171808     0.178175    0.0699676    0.0551444      0.10191    0.0723987     0.157601    0.0967744   -0.0711095     -0.14353     -0.15329   -0.0618381   -0.0387651    -0.135239    -0.129186   -0.0889029   -0.0373536    0.0233306   -0.0286045    0.0531884   0.00998209    0.0218768   -0.0578071    0.0182351    0.0200514    -0.126082    0.0809496      0.10614     0.204815     0.129867     0.011132    0.0668378     0.129147     0.206261      0.22239    0.0581323   -0.0723594   -0.0606039   -0.0365644   -0.0876005   -0.0866493    -0.242778    -0.199352   -0.0864491    -0.015342   -0.0268175    0.0173168   -0.0156091   -0.0326315   -0.0320008   -0.0630099   -0.0258977   -0.0564078     0.111903     0.134191     0.122188     0.185992    0.0815015   -0.0392668    0.0460242     0.181989     0.384816     0.286458    0.0217784     0.010729    0.0127089  -0.00372598   -0.0043915   -0.0554537    -0.214963    -0.237709   -0.0918425   -0.0178007   -0.0151113    -0.031028      -0.0201   -0.0397074   -0.0892136    0.0715214    0.0891777    0.0940165     0.113828     0.076698     0.250205     0.332805   -0.0285672    -0.115094   -0.0994603     0.151756     0.251118     0.351219    0.0574837    0.0825085      0.15088    0.0329943   0.00481876   -0.0284263    -0.259162    -0.193543   -0.0650953    0.0158712  0.000861357    0.0346459    0.0185296   -0.0518577   -0.0113352     0.157812     0.182252     0.253469        0.157     0.209237     0.314171    0.0759739    -0.182318    -0.328673    -0.289078   -0.0592249     0.186437     0.306717     0.301397     0.254446     0.347271     0.242354     0.195545    0.0823666    -0.143146    -0.181558   -0.0683966    0.0162736  -0.00884928    0.0176371    0.0310811   -0.0153062    0.0941756     0.269597     0.247702     0.209578     0.125223     0.360712     0.327197     0.163078    -0.113695    -0.299499    -0.202294    -0.181857   -0.0210604      0.15762     0.315286     0.365709     0.305797     0.255514     0.192068     0.116876   -0.0154854    -0.164045   -0.0121818  -0.00672838   -0.0255382    0.0103011    0.0223572   -0.0254728     0.136705      0.33332     0.238424      0.18269     0.236894     0.394415     0.199968    -0.100766     -0.16453    -0.134271    -0.415207    -0.527114    -0.368956    -0.119739    0.0892466     0.098484     0.264598     0.394993     0.319102     0.100336   -0.0516044   -0.0694157    0.0030818     0.011401   -0.0127121    0.0080364   0.00550331   -0.0263492     0.123977     0.289162     0.315536     0.177238    0.0942734     0.186066    0.0919073   -0.0471109    -0.139849    -0.479653     -0.83098    -0.747425    -0.371236    -0.104223      0.11792     0.112321     0.323393     0.302644     0.218633     0.119007   -0.0272118   -0.0785172  -0.00378325   -0.0321354   -0.0203712    0.0114755    0.0248142   -0.0719026    0.0730039     0.266744     0.249725     0.228933     0.150199     0.201533     0.119014   -0.0130243    -0.226509    -0.579137    -0.766716    -0.623045    -0.127106     0.246643     0.246264     0.201531     0.250247     0.192537     0.187367    0.0332387    -0.105033   -0.0826668   -0.0282577   -0.0119277    0.0180634    0.0097514    0.0126684   -0.0654214    0.0866732     0.105993     0.140653     0.106559     0.125036     0.136685   -0.0535876    0.0306688    -0.248678    -0.736801    -0.749283    -0.351476    0.0145816     0.217843     0.179304     0.127158     0.309023    0.0973988    -0.025067    -0.122141    -0.160524    -0.122867   -0.0417816   -0.0207975   0.00056202   -0.0219987  -0.00104082   -0.0509412      0.10904     0.134837   4.4323e-05    0.0984125     0.170639    0.0744217    0.0248565    -0.147683    -0.328065    -0.689935    -0.578261    -0.179338    0.0810571     0.362347     0.168596   -0.0147219    0.0716132    0.0418314   -0.0914327    -0.125731    -0.175789   -0.0881162   -0.0170803    0.0365719   -0.0281071   -0.0062309   -0.0127835    -0.113821   -0.0178141   -0.0262159    -0.132694    -0.106482   -0.0390012    0.0212286     0.152996    -0.120575    -0.372902    -0.540565    -0.248414   -0.0203734      0.30361     0.293091    0.0678246    -0.145809   -0.0496364    -0.187561    -0.102326    -0.216547    -0.143585   -0.0170367    0.0275878    0.0069988   -0.0207202  -0.00167232   -0.0335164    -0.058239  -0.00664871   -0.0548024    -0.113624    -0.231241   -0.0998799    -0.134528    -0.246398    -0.262931    -0.385696    -0.416203    -0.158515     0.169727     0.171698    0.0422301    -0.125939     -0.26685    -0.181136    -0.203615    -0.200726    -0.198091    -0.164494   -0.0190758   -0.0108467   0.00262525  -0.00418343    0.0227192    0.0199153   -0.0760973    0.0170094    0.0300786    -0.127247    -0.254139    -0.247966    -0.219715    -0.215924     -0.20736    -0.277803    -0.269599     -0.13413    0.0821704   -0.0166877   -0.0835765     -0.21777     -0.31153    -0.257699    -0.197398    -0.247781    -0.217489   -0.0983003  -0.00072123   -0.0132499    0.0114807    0.0211575  -0.00445547   -0.0168146   -0.0952144   -0.0467986   -0.0287501    -0.156231    -0.254301    -0.258876    -0.412019     -0.33733    -0.264779    -0.243955    -0.215291    -0.203053     0.015009    0.0121729   -0.0675401    -0.145199    -0.205939    -0.280407    -0.126921    -0.150209    -0.129149 -0.000115569    0.0322105   -0.0159594   -0.0253207   -0.0321293   0.00271925   -0.0457593    -0.040945    -0.105507    0.0083147     -0.12509    -0.148884    -0.223913    -0.238606    -0.111512    0.0381361     0.193634   -0.0213396    0.0937729     0.161375     0.088882   -0.0870352   -0.0438291    -0.193372    -0.078682   -0.0194898    -0.100278    0.0306523    0.0160442   -0.0123952    0.0307723   0.00977461   -0.0269851   -0.0107601  -0.00533833   -0.0623381    -0.114833   -0.0578652    -0.188377    -0.173199    -0.148489   -0.0618452  -0.00794661    0.0521041     0.119099     0.125917     0.110593     0.100446     0.135796     0.118352    0.0689688  -0.00698251  -0.00121847   0.00819353    0.0643228    0.0729202    0.0160787   0.00746227   0.00224198    0.0014079  -0.00895084    0.0122995   -0.0100632   -0.0236833   -0.0708323   -0.0360285    -0.182177    -0.148051    -0.166841    -0.289465    -0.200442   -0.0649636    0.0373442     0.104049    0.0716371    0.0228682     0.087033     0.191553    0.0853725    0.0690653     0.164417    0.0973628     0.100793    0.0355745   -0.0102802   0.00581068  -0.00100956   -0.0340096     0.021463    0.0315859    0.0218042   -0.0308086    0.0290799   -0.0273455   -0.0252771    -0.142899    -0.142979    -0.269828    -0.174401    -0.193476    -0.168779    -0.147253     -0.10318   -0.0544937   -0.0215678      0.05883    0.0300491    0.0593431      0.10906    0.0914078    0.0685211   0.00966241  -0.00570104    0.0254603   0.00232079   0.00029292   0.00534961   0.00177791    0.0278658    0.0340626    0.0322787   -0.0226219   -0.0175375   0.00883067   -0.0363733  -0.00917738   -0.0780311  -0.00859696    -0.020301    0.0402595     0.117024     0.103896      0.06567    0.0215883    0.0501004   0.00782588    0.0618334   0.00116999    0.0341965   -0.0176751   -0.0288162  -0.00810143    0.0345569   -0.0343337    0.0156538 -0.000630502   -0.0151079  -0.00336322   -0.0124693  0.000928009   0.00773072   0.00852984   -0.0174421   -0.0138715   -0.0130436   -0.0171911   0.00328405  -0.00124133   -0.0106647   -0.0197678   -0.0216497   -0.0257089   -0.0115099   -0.0085258   -0.0195902    0.0203404     0.019726  -0.00191314   -0.0121736    0.0343982   -0.0148009     0.017974
    0.032028   -0.0353869    0.0275604    0.0191183    0.0139265    0.0256736   -0.0194403   -0.0201729   -0.0200215   -0.0010088   -0.0239717    0.0140846    0.0186521    0.0124461   -0.0295977  -0.00289323   -0.0327604   -0.0282231   -0.0307849  -0.00751937    0.0245391   0.00568456   0.00485326    0.0119168  -0.00485259  0.000261926  0.000722114   0.00860723  -0.00773173    0.0242928   -0.0157614   0.00288454    0.0160882  -0.00216229    0.0232237 -3.18439e-05  0.000336645    0.0226665  -0.00597877    -0.019382   -0.0263674    0.0137114    0.0277179   -0.0303488   0.00637872     -0.03445   0.00466591    0.0155159    0.0046183    0.0310808   -0.0296743    0.0307061    0.0124115 -0.000607716   -0.0204643   -0.0134789   -0.0345421   -0.0256025   -0.0220725  -0.00928871   -0.0139686   0.00148129    0.0066622 -2.54025e-05    0.0247949    0.0050599  -0.00844219   -0.0290272     0.022718    0.0257438   -0.0272405   0.00778193   -0.0340519   -0.0135603   -0.0379855   -0.0112409   -0.0151189   -0.0535687   -0.0376362    0.0254746   -0.0123488    0.0251493  -0.00664728   -0.0217728   -0.0116733  -0.00534382   -0.0177585   -0.0313914   0.00393123  -0.00322488    0.0386693    0.0357882    0.0247141   -0.0152592   -0.0012204    0.0650869  -0.00991595   -0.0546243   -0.0858706   -0.0854177    -0.133045    -0.162534     -0.16547    -0.181862     -0.11089    -0.121844   -0.0483115   -0.0564549  0.000418854   -0.0125757  -0.00651621   -0.0049648  -0.00860649   0.00796617   -0.0141811   -0.0208376    0.0258677    0.0337211    0.0815281     0.130476     0.208069     0.196025     0.320669     0.161647     0.136734     0.044314    0.0313939    -0.100578     -0.25969    -0.462022    -0.374787    -0.268544    -0.216795    -0.184397    -0.140218    -0.122051   -0.0532946    0.0150407   -0.0022674    0.0107052    -0.022227  -0.00224277   -0.0308015    0.0134526     0.101246      0.10278      0.11831     0.156689     0.191645    0.0859124     0.158304     0.197134     0.265725     0.142854     0.088477     0.128616   -0.0320432    -0.228064    -0.329964    -0.265575    -0.320666    -0.293572    -0.218975    -0.232455   -0.0981491   -0.0316165   -0.0229977    0.0125631    0.0347849   -0.0199375    0.0206353    0.0455784    0.0941501     0.177482     0.225537     0.160726     0.254659     0.125865     0.256488     0.298979     0.270195     0.123011    0.0586606    0.0705792    -0.117925   -0.0147849    -0.210201    -0.291552    -0.317868    -0.244909    -0.278657    -0.239059    -0.100219   -0.0794548   -0.0194434   -0.0231322    0.0271588    0.0175263    0.0410851    0.0835352      0.14626     0.197123     0.178821    0.0320719  -0.00193707    0.0757084    -0.015998    0.0144291  -0.00573025     0.210827     0.283686     0.210162    0.0331607   -0.0959677     -0.22268    -0.383237    -0.286172    -0.301852    -0.299879    -0.335581    -0.236654   -0.0794344  -0.00854666    0.0332503   -0.0268676    -0.030432   -0.0242236     0.105198     0.212736    0.0824516    0.0621379   -0.0821411   -0.0343718    -0.110541    -0.337434    -0.185496    -0.238461     0.157795     0.415735      0.35857     0.281953     0.030934    -0.194347    -0.358439    -0.345409    -0.326358    -0.255751      -0.2893    -0.223794   -0.0775408   -0.0359521   -0.0136088    0.0207464 -0.000666152    0.0123458    0.0596587     0.105434    0.0369025    0.0592386     -0.22785    -0.231708    -0.358997    -0.373724    -0.492185    -0.208045     0.131595     0.383317     0.389646    0.0975982    -0.118751    -0.214858      -0.3071    -0.305248    -0.278281     -0.24357    -0.261071    -0.201271    -0.060291   0.00588711    0.0153129    0.0271887   0.00603164    0.0450001    0.0437306    0.0633208    -0.112142    -0.199833    -0.341003    -0.527671    -0.740689    -0.644824    -0.254757      0.11937     0.335287     0.402306     0.205413    0.0494927    -0.241561    -0.436383    -0.312926    -0.245068    -0.277448     -0.18254    -0.237004    -0.133926   -0.0409596    0.0292334   -0.0137347   -0.0356438   0.00614744   -0.0018365    0.0352845   -0.0518479    -0.204366    -0.366039    -0.574475    -0.527253    -0.458428     -0.12496     0.175279     0.385067     0.435937     0.255186     0.119208   -0.0891606    -0.357718    -0.506374     -0.28656    -0.242796     -0.12868    -0.240391    -0.155805   -0.0589794   -0.0189131    0.0240503    0.0304284  -0.00364785    0.0361356    0.0395223   -0.0207883   -0.0574168    -0.265118    -0.367676    -0.389044    -0.238692    -0.152523    0.0790565     0.376438     0.384922     0.327456     0.170398    0.0562268    -0.203583    -0.342606    -0.407306    -0.345314     -0.20682    -0.178808    -0.203589    -0.121014   -0.0880047    0.0322694  -0.00821247     0.022774   -0.0019554  -0.00824323    0.0271531    0.0215784   -0.0496881    -0.202305    -0.218208    -0.121959    0.0906953     0.188826     0.134214     0.284649      0.45964     0.263806     0.178186   -0.0876408    -0.162312   -0.0944594    -0.180398     -0.14234   -0.0954716   -0.0596811    -0.112694    -0.110472   -0.0286903    0.0256976   0.00931156    0.0343007    0.0054859   0.00651961   -0.0206368    -0.021676    -0.014294    -0.106336    -0.120259     0.024953     0.131655    0.0264399    0.0222428   -0.0409703     0.039542   -0.0556579    -0.163682    -0.255504    -0.254335    -0.280124    -0.119497    0.0432295   -0.0208959   -0.0155663    0.0256015   -0.0150806   0.00156923    0.0645978    0.0165096   -0.0179229    0.0280071   -0.0283306   0.00404282   0.00778098     0.036272   -0.0170514   -0.0352326    0.0175427    0.0102041    -0.101446    -0.285371     -0.28332    -0.126392    -0.196323   -0.0518244    -0.277616    -0.387774    -0.206284    -0.111743    0.0255431    0.0597926     0.135163     0.156394     0.031104     0.015028    0.0292941    0.0166732  -0.00407267   -0.0164882   -0.0177393      0.03162    0.0237136    0.0513533   -0.0346793   -0.0425831   -0.0595754    -0.124398    -0.135168    -0.227964     -0.29804    -0.221395    -0.171616    -0.236527    -0.324915    -0.265343    -0.151165    -0.248259     0.040841      0.13423     0.205458     0.209179    0.0900606   -0.0149858      0.07525    0.0637574   -0.0238281    0.0173037   0.00139634   -0.0154558    0.0603646    0.0330367      0.00401   -0.0692317    -0.118033   -0.0946113    -0.237013    -0.334996    -0.308612    -0.405753    -0.304518    -0.194065    -0.210736    -0.236102     -0.13352   -0.0694738    0.0356049    0.0256857     0.158805     0.260783    0.0848938    0.0204561    0.0302636    0.0224435    0.0211247  -0.00545965   -0.0183266   0.00319083     0.149173    0.0997723    0.0304461    -0.046722    -0.108628    -0.145477    -0.236221    -0.290746    -0.397977     -0.37461    -0.342465    -0.178978    -0.100545    0.0272547   -0.0421159   0.00129402     0.207024   -0.0251895     0.201322     0.212052    0.0282857   -0.0535509    0.0580803    0.0432027   -0.0247965   -0.0307857    0.0300281    0.0416627     0.144279     0.120337   -0.0407597    -0.142952    -0.173781    -0.118769   -0.0905368    -0.197403    -0.317438    -0.462709    -0.280417    -0.104978   -0.0896611    0.0613436    0.0650123   0.00521647     0.117919   -0.0159142     0.206084    0.0553756  0.000826685  -0.00853205    0.0512892   -0.0117042  -0.00718884   -0.0252671   -0.0316803   -0.0157407     0.123362     0.103097   -0.0361774   -0.0848432   -0.0625757   0.00843897   -0.0520415   -0.0170401    -0.119153     -0.21948    -0.320643   -0.0365734    0.0597361    0.0826461   -0.0114441    0.0704302      0.15338     0.108864    0.0909616    0.0129756  -0.00462119    0.0269951     0.044985    0.0131191    0.0252387    0.0171475   -0.0339677 -0.000181267     0.107307    0.0887614   -0.0690516   -0.0789884   -0.0893267   -0.0580859     0.049367   -0.0448263  -0.00324053    -0.141895    -0.103582   -0.0631421   -0.0907988   -0.0891004    0.0751101    0.0550992    0.0792129     0.135937   -0.0643423    -0.142569   -0.0307474   -0.0299305  0.000242317    0.0166908    0.0224829  -0.00260982   0.00105612   -0.0194344    0.0367999      0.03549   -0.0440785    0.0381165    -0.017852  -0.00332089    0.0458513   -0.0631783    -0.145975    -0.189159    -0.226725    -0.245893    -0.119111   -0.0473584   -0.0095469    0.0137565   -0.0356464   -0.0560641   0.00947077   -0.0836676   -0.0180898   -0.0350714  -0.00323216    -0.023797    0.0122675    0.0336176     0.012436    0.0353839    0.0303886     0.031647    0.0106341     0.140998     0.145803      0.12753     0.169275     0.307427     0.197675     0.013111  -0.00639068    0.0602152    0.0458249   -0.0676381   0.00324894   0.00751962   -0.0284942   -0.0760924    -0.074341   -0.0972536   -0.0653174    -0.021869    0.0292671    -0.011722    0.0197105  -0.00826752    0.0026046  -0.00610873   0.00280841   0.00538279    0.0719597      0.11924     0.115062     0.135551    0.0762783      0.19083     0.141268   -0.0290584   0.00496583    -0.105767   -0.0775923    -0.126827    -0.122002    -0.031043   -0.0519724    -0.103649    -0.119803    -0.046274   -0.0205405   0.00312046   -0.0160244  -0.00355625    -0.027729    0.0140446   0.00632954    0.0214725     0.040415  -0.00854461    0.0344773    0.0260714    0.0475488    0.0861781     0.106569     0.107453    0.0108021  -0.00227073    -0.100116    -0.122666    -0.159961   -0.0848498    -0.128887   -0.0770597   -0.0505585   -0.0858547   -0.0394532    -0.071724   0.00499573   -0.0179687   -0.0150605   -0.0261537  -0.00545953   -0.0176976    0.0241561    -0.017176    0.0212033  -0.00856941   0.00406101   -0.0238565   -0.0268254   -0.0257898  -0.00708802   -0.0289483   -0.0458741   -0.0352865    -0.141041    -0.105019    -0.104725   -0.0392053   -0.0619537   -0.0260164   -0.0159198   0.00425096    0.0165298   -0.0190536    0.0310196   -0.0303756  -0.00642874    0.0115866    0.0255222    0.0223197   -0.0254131   0.00946061    -0.025694    0.0311086   -0.0140265    0.0268117    0.0215559   0.00162266   -0.0220824    0.0140591   -0.0176798   -0.0302292   -0.0505627   -0.0310115    0.0344813   -0.0335757    0.0248562     0.031097    0.0154088    0.0314588   -0.0177961    0.0322763     0.033431   -0.0298398   -0.0115278    0.0276306    0.0175612
  0.00921213   -0.0333692   -0.0061486    0.0347181  -0.00827608  -0.00388962   -0.0186624    0.0254209   -0.0019407   -0.0263204   -0.0356468   0.00488829   -0.0187858    0.0348179     0.012294   -0.0225207   -0.0330149    0.0111537    0.0261187   -0.0208931 -0.000605873   -0.0309881  -0.00275947 -0.000296085    0.0139903   -0.0263793  -0.00628244    0.0188788   -0.0186847   0.00312383    0.0271985   -0.0195229   -0.0338691   0.00736408   -0.0286315  -0.00411772   -0.0175619   -0.0206347   -0.0172939    0.0230531   0.00925433  -0.00942857    0.0156736   -0.0325454   -0.0266145   0.00202117   -0.0316092   -0.0233789   -0.0280878   -0.0303764    0.0234832   0.00481286    0.0283895  0.000395584   -0.0146929    0.0308799    0.0230352   -0.0162705    0.0213668     0.025146    0.0278733    0.0340489   0.00217263   -0.0153286    0.0372754    0.0274862   -0.0290952   -0.0563782   -0.0682587    -0.086442   -0.0963317    -0.110546    -0.129477   -0.0738517   -0.0612921   0.00149371   -0.0529042   -0.0238871   0.00327295  -0.00821414    0.0141772    0.0139456  -0.00662032  -0.00637349    0.0207365    -0.027852   -0.0134247   -0.0336911  -0.00055798  -0.00948927    -0.014508  -0.00789779   0.00691577   0.00305548    0.0732995   -0.0561404   -0.0311745    -0.133991    -0.187271    -0.188767    -0.162483    -0.102125   -0.0739064   -0.0629448   -0.0559456    -0.066501    0.0196921   0.00320709   0.00605994   0.00550169   -0.0311251   -0.0148077  -0.00646112   -0.0289549   0.00367626    -0.017314    0.0353645     0.042827   0.00624481     0.082405     0.154874     0.149495     0.152873      0.12804    0.0486255   -0.0490718   -0.0244175   -0.0265741    -0.110543   -0.0330497    0.0304682    0.0757358   -0.0165292   -0.0350061   -0.0454031     -0.02751   0.00429288   -0.0214056   0.00641223   -0.0188274   0.00219418    0.0201119   -0.0168407   -0.0158629   -0.0198951    0.0165777      0.10064     0.163885     0.100399     0.152556     0.108485     0.054875    0.0510153     0.101954    0.0921394    0.0673451     0.104576   -0.0358328   -0.0434087   -0.0718911   -0.0929203   -0.0554984   -0.0607169   -0.0310013   -0.0127329    0.0444458    0.0304308  -0.00285297   -0.0126288   -0.0346254    0.0190592    0.0582956    0.0204626      0.15747     0.224882     0.151498    0.0778317     0.118679     0.119598    0.0143887    0.0267145   -0.0274626    0.0130521   -0.0672687    -0.195152    -0.124584   -0.0553419    -0.115595   -0.0174538    0.0741438   -0.0288223   -0.0133941     0.061429     0.036367   -0.0119264    0.0245359  -0.00184592   -0.0113106    0.0289546    0.0898696    0.0737871     0.088776     0.164978    0.0984191    0.0313979   -0.0506539    -0.117144   -0.0307751    -0.104542     -0.26498    -0.135129    -0.175028    -0.198134     -0.23796    -0.125089   -0.0424212    -0.039411    0.0545456     0.131484   -0.0356212   -0.0244681    0.0137585   0.00651918   -0.0122793   -0.0287762    0.0380364  -0.00102601    0.0876997    0.0834549   0.00895023  -0.00685657   -0.0931827   -0.0949175    -0.114625     -0.19938   -0.0977135    -0.203534    -0.291237    -0.257443    -0.210917    -0.189815    -0.280769    -0.143726   0.00722005   0.00496927    0.0580821    0.0585003   -0.0774635    -0.104365   -0.0582345   -0.0301405   -0.0291114   -0.0185132   -0.0180421   0.00830209    0.0620147    0.0209081    0.0280397   -0.0463478    -0.181778    -0.269161    -0.199103    -0.215131    -0.253409    -0.210854   -0.0610234   -0.0529414    0.0656468    0.0266828    -0.141391    -0.140934   -0.0735975    0.0604522    0.0908876   -0.0169208    -0.100417    -0.190934   -0.0828386   -0.0584116    0.0226623   -0.0141966   -0.0150293     0.042573    0.0651007      0.04439   -0.0286464    -0.136724    -0.155161    -0.278435     -0.22793     -0.21657    -0.188323  -0.00897084   -0.0925389   -0.0453025   -0.0921469    -0.054367    -0.133915    -0.256096   0.00795711     0.125093    0.0156364    0.0502719    -0.115571    -0.185825    -0.126645   -0.0113946   -0.0331594    0.0299531    0.0144793   0.00640954     0.127251     0.131529   0.00306753   -0.0921922    -0.123178     -0.19806    -0.269803    -0.205485    -0.307352    -0.145218    -0.132934    -0.365945    -0.225188    -0.207826    -0.376279    -0.314744    0.0220357      0.25597    0.0615024    0.0770375    -0.126882    -0.215427   -0.0391048  -0.00993713   -0.0238423   -0.0236333   0.00729965  -0.00104841    0.0775768    0.0795466    0.0535291   -0.0183485   -0.0455528    -0.165261    -0.266184    -0.237374   -0.0750487    -0.159942    -0.331049    -0.553261    -0.352192    -0.384823    -0.460817    -0.207273     0.108084     0.296589     0.217037     0.202114    -0.155872    -0.151954    0.0444386    -0.014488   -0.0176806    0.0104542   -0.0231707    0.0362803    0.0288699    0.0854325   -0.0386862   -0.0190733   -0.0329761    -0.185168    -0.244251    -0.243044    -0.268625    -0.143353    -0.540257    -0.436462    -0.338303    -0.248248    -0.188117    0.0894171     0.229126     0.216245     0.236177     0.164093   -0.0988767   -0.0610735    0.0450411  -0.00514969    0.0188667   0.00264537    0.0314633   -0.0157142     0.117137    0.0493542    0.0251473   -0.0535744   -0.0293102   -0.0516801    -0.126468    -0.215197    -0.390934    -0.472936    -0.600885    -0.396294    -0.204173  -0.00831654     0.141183     0.246024     0.364768     0.314381      0.18318    0.0334977   -0.0678765   -0.0241193    0.0334577   -0.0135468   -0.0196701    -0.018668    -0.031124   -0.0188698     0.058326   -0.0137506  -0.00608474    0.0892251    0.0593399    -0.109038    -0.277833    -0.425741    -0.618807    -0.621153    -0.406779    0.0429328     0.225127     0.380138     0.278871     0.383651     0.301059     0.142821    0.0424118   -0.0327537   -0.0802819     0.049171    0.0721751    0.0397589   0.00658453  -0.00862828   0.00806336  -0.00874588    0.0239374   -0.0124462    0.0688053     0.122965   0.00549386   -0.0772107    -0.383366    -0.585993    -0.527146    -0.373759   -0.0402717     0.300231     0.471187      0.53711     0.426284     0.204727     0.147048    0.0933885   -0.0101772   -0.0244398   0.00138038     0.039682    0.0619801    0.0598241  -0.00626852   -0.0343615   -0.0211685 -0.000448709   -0.0119766  -0.00712597    0.0720862     0.105667   0.00673628   -0.0874422    -0.375116    -0.521303    -0.402599    -0.205108     0.241082     0.406201     0.537878     0.514156       0.3015     0.162513    0.0242221   -0.0577308   -0.0275039   -0.0316469   -0.0320483    0.0922949    0.0832532    0.0541397    0.0147363  -0.00916232     0.012171   0.00970773     0.049103    0.0919972    0.0108461   -0.0156139   -0.0787255    -0.225398    -0.281949    -0.375031     -0.14848   -0.0475621     0.220064     0.462788     0.408534     0.263631     0.142518     0.154506     0.035396   0.00352287   -0.0462671     -0.11766   0.00455517    0.0469037    0.0712647    0.0436873     0.010515   -0.0269816   -0.0257346   -0.0284132    0.0191619    0.0682557     0.010065  -0.00254119     -0.15645    -0.168281    -0.272676    -0.282638    -0.242973    -0.104888    0.0305259      0.20215     0.263161     0.315771     0.237618      0.10832    0.0872052    0.0751374    -0.112818    -0.123305   0.00428062    0.0567852    0.0461497    -0.010288   -0.0208781    -0.021824    0.0298407      -0.0307   0.00404398     0.128434    0.0532367     -0.01801    -0.073335    -0.106238   -0.0911213    -0.231569    -0.205211    -0.182114    0.0538838  -0.00450663     0.112725     0.182697     0.137779     0.126051      0.22577    0.0108817   -0.0257847   -0.0912505   -0.0521839    0.0479548    0.0275892    0.0329674  -0.00336695    0.0200781   0.00920251   -0.0259725    0.0217354     0.071738    0.0309435     0.031555   0.00360842    0.0397218    -0.100031    -0.111379    -0.231342     -0.18367    -0.187831    -0.106607   -0.0402875   -0.0043342    0.0247196     0.143702     0.241465     0.113736     0.093772    0.0870387   -0.0105073     0.046355  -0.00957327    0.0171694    0.0176051    0.0304891    0.0241548   -0.0152979    0.0272837    0.0414915    0.0213486     0.129575     0.119221    0.0980607    0.0361107   -0.0334837   -0.0512233   -0.0892686    -0.145807    -0.199836    -0.249597   -0.0985342    0.0635984    0.0920147     0.109482      0.12661     0.084997     0.136843    0.0490335    0.0446433    0.0565608   0.00229441   -0.0287513    0.0111172    0.0111748   0.00360359  -0.00754043    0.0539786    0.0454927  -0.00296314     0.102568    0.0190609    0.0135395   -0.0594982    -0.137732    -0.163151    -0.285783     -0.19774    -0.170122   -0.0560184    0.0568741    0.0908364     0.033051     0.144464      0.15776    0.0651441   -0.0243422    0.0668855    0.0405664    0.0248608   -0.0111085    -0.023581   -0.0102324   -0.0274525   -0.0145263   -0.0733848   -0.0830066   -0.0764838   -0.0631687   -0.0676846    -0.249443    -0.302955    -0.172906    -0.255636    -0.177041    -0.123361   -0.0612202     0.141645    0.0984112    0.0388482    0.0793714     0.120559     0.050787   -0.0211674    0.0122328    0.0345052  -0.00865326    0.0145321    0.0307076     -0.02342     0.023387   -0.0125066    0.0210077   -0.0180304    0.0223028    0.0703671   0.00116264     0.059903   -0.0991023   -0.0734907    -0.136399    -0.159195   -0.0388338   -0.0484427    0.0149779    0.0712853    0.0425165    -0.058465   -0.0337712   -0.0471603  -0.00332911    0.0215776   0.00398922   0.00449956   -0.0222259    0.0346922    0.0273679   -0.0154112  -0.00892688   -0.0348869    0.0270102   -0.0196644   0.00468513    0.0118236    0.0496204   -0.0104148   -0.0312023  -0.00554865   -0.0347705    -0.030873    0.0261555   0.00387604    0.0279187    0.0181403     0.011139   -0.0210937     0.005786   -0.0244385   -0.0200029   -0.0296576    0.0196452   -0.0208763    0.0235499    0.0225374    0.0231472    -0.015562    0.0253158   0.00445594    0.0183281   -0.0155971    0.0243142    0.0323034   -0.0220383   -0.0101276   -0.0181536    0.0143292    0.0469479    0.0516948    0.0315131     0.020783   -0.0164397    0.0329637    0.0405856   0.00588294    0.0118665    0.0262276  -0.00730841  0.000538142   -0.0143533   -0.0181733   -0.0340664    0.0296773   0.00822622
